<?xml version="1.0"?>
<opencv_storage>
<stage3>
  <maxWeakCount>10</maxWeakCount>
  <stageThreshold>-1.0750963687896729e+00</stageThreshold>
  <weakClassifiers>
    <_>
      <internalNodes>
        0 -1 44463 -3.1737998127937317e-02</internalNodes>
      <leafValues>
        4.2148759961128235e-01 -6.4556962251663208e-01</leafValues></_>
    <_>
      <internalNodes>
        0 -1 152987 5.7437419891357422e-03</internalNodes>
      <leafValues>
        -4.1461756825447083e-01 2.7663075923919678e-01</leafValues></_>
    <_>
      <internalNodes>
        0 -1 162220 -4.7156895743682981e-04</internalNodes>
      <leafValues>
        -8.5361260175704956e-01 1.1511123180389404e-01</leafValues></_>
    <_>
      <internalNodes>
        0 -1 142397 6.7838141694664955e-04</internalNodes>
      <leafValues>
        1.7585983872413635e-01 -5.8487415313720703e-01</leafValues></_>
    <_>
      <internalNodes>
        0 -1 44966 1.8518260912969708e-04</internalNodes>
      <leafValues>
        1.7254173755645752e-01 -6.5228301286697388e-01</leafValues></_>
    <_>
      <internalNodes>
        0 -1 155168 -2.0730109885334969e-02</internalNodes>
      <leafValues>
        2.4288786947727203e-01 -4.7296902537345886e-01</leafValues></_>
    <_>
      <internalNodes>
        0 -1 56689 3.5238248528912663e-04</internalNodes>
      <leafValues>
        1.5236820280551910e-01 -5.7622396945953369e-01</leafValues></_>
    <_>
      <internalNodes>
        0 -1 156871 -1.2076017446815968e-03</internalNodes>
      <leafValues>
        -8.3700382709503174e-01 1.0746977478265762e-01</leafValues></_>
    <_>
      <internalNodes>
        0 -1 70630 1.3224559370428324e-03</internalNodes>
      <leafValues>
        -2.5432857871055603e-01 4.3189674615859985e-01</leafValues></_>
    <_>
      <internalNodes>
        0 -1 38931 5.5455218534916639e-04</internalNodes>
      <leafValues>
        -2.4045951664447784e-01 5.0548559427261353e-01</leafValues></_></weakClassifiers></stage3>
</opencv_storage>
