<?xml version="1.0"?>
<opencv_storage>
<cascade>
  <stageType>BOOST</stageType>
  <featureType>HAAR</featureType>
  <height>24</height>
  <width>24</width>
  <stageParams>
    <boostType>GAB</boostType>
    <minHitRate>9.9500000476837158e-01</minHitRate>
    <maxFalseAlarm>5.0000000000000000e-01</maxFalseAlarm>
    <weightTrimRate>9.4999999999999996e-01</weightTrimRate>
    <maxDepth>1</maxDepth>
    <maxWeakCount>100</maxWeakCount></stageParams>
  <featureParams>
    <maxCatCount>0</maxCatCount>
    <featSize>1</featSize>
    <mode>BASIC</mode></featureParams>
  <stageNum>9</stageNum>
  <stages>
    <!-- stage 0 -->
    <_>
      <maxWeakCount>3</maxWeakCount>
      <stageThreshold>-9.5562994480133057e-01</stageThreshold>
      <weakClassifiers>
        <_>
          <internalNodes>
            0 -1 53 -5.2187755703926086e-02</internalNodes>
          <leafValues>
            8.0952382087707520e-01 -8.9473682641983032e-01</leafValues></_>
        <_>
          <internalNodes>
            0 -1 15 4.8337124288082123e-02</internalNodes>
          <leafValues>
            -6.9019222259521484e-01 8.1150829792022705e-01</leafValues></_>
        <_>
          <internalNodes>
            0 -1 31 1.4594923704862595e-02</internalNodes>
          <leafValues>
            -7.1588569879531860e-01 6.2929910421371460e-01</leafValues></_></weakClassifiers></_>
    <!-- stage 1 -->
    <_>
      <maxWeakCount>4</maxWeakCount>
      <stageThreshold>-1.4250682592391968e+00</stageThreshold>
      <weakClassifiers>
        <_>
          <internalNodes>
            0 -1 6 8.4994763135910034e-02</internalNodes>
          <leafValues>
            -8.0555558204650879e-01 7.4358975887298584e-01</leafValues></_>
        <_>
          <internalNodes>
            0 -1 55 -3.7919707596302032e-02</internalNodes>
          <leafValues>
            4.9579396843910217e-01 -7.5766408443450928e-01</leafValues></_>
        <_>
          <internalNodes>
            0 -1 9 2.0572412759065628e-02</internalNodes>
          <leafValues>
            -8.1702888011932373e-01 2.6145246624946594e-01</leafValues></_>
        <_>
          <internalNodes>
            0 -1 27 2.5785355828702450e-03</internalNodes>
          <leafValues>
            -2.9827776551246643e-01 6.9724583625793457e-01</leafValues></_></weakClassifiers></_>
    <!-- stage 2 -->
    <_>
      <maxWeakCount>6</maxWeakCount>
      <stageThreshold>-1.0483906269073486e+00</stageThreshold>
      <weakClassifiers>
        <_>
          <internalNodes>
            0 -1 33 -1.9434498623013496e-02</internalNodes>
          <leafValues>
            6.3354039192199707e-01 -7.3381292819976807e-01</leafValues></_>
        <_>
          <internalNodes>
            0 -1 42 2.0273953676223755e-02</internalNodes>
          <leafValues>
            -4.8622855544090271e-01 5.1861292123794556e-01</leafValues></_>
        <_>
          <internalNodes>
            0 -1 5 2.1397098898887634e-02</internalNodes>
          <leafValues>
            -8.3966052532196045e-01 1.8445561826229095e-01</leafValues></_>
        <_>
          <internalNodes>
            0 -1 56 1.7090654000639915e-03</internalNodes>
          <leafValues>
            1.8718014657497406e-01 -7.9059231281280518e-01</leafValues></_>
        <_>
          <internalNodes>
            0 -1 45 -2.3564659059047699e-03</internalNodes>
          <leafValues>
            4.8494130373001099e-01 -3.1251174211502075e-01</leafValues></_>
        <_>
          <internalNodes>
            0 -1 65 -2.6866019470617175e-04</internalNodes>
          <leafValues>
            -6.8492621183395386e-01 2.2662647068500519e-01</leafValues></_></weakClassifiers></_>
    <!-- stage 3 -->
    <_>
      <maxWeakCount>6</maxWeakCount>
      <stageThreshold>-1.1557937860488892e+00</stageThreshold>
      <weakClassifiers>
        <_>
          <internalNodes>
            0 -1 17 -3.1624197959899902e-02</internalNodes>
          <leafValues>
            4.3478259444236755e-01 -6.8965518474578857e-01</leafValues></_>
        <_>
          <internalNodes>
            0 -1 36 8.3895429968833923e-02</internalNodes>
          <leafValues>
            -7.5383156538009644e-01 2.0187683403491974e-01</leafValues></_>
        <_>
          <internalNodes>
            0 -1 59 -2.1193057298660278e-02</internalNodes>
          <leafValues>
            2.3659302294254303e-01 -5.9848242998123169e-01</leafValues></_>
        <_>
          <internalNodes>
            0 -1 16 2.0216153934597969e-02</internalNodes>
          <leafValues>
            -3.5393518209457397e-01 3.4201499819755554e-01</leafValues></_>
        <_>
          <internalNodes>
            0 -1 64 9.4465431175194681e-05</internalNodes>
          <leafValues>
            3.1617254018783569e-01 -3.8791140913963318e-01</leafValues></_>
        <_>
          <internalNodes>
            0 -1 51 -3.5777115263044834e-03</internalNodes>
          <leafValues>
            2.4226161837577820e-01 -4.5212423801422119e-01</leafValues></_></weakClassifiers></_>
    <!-- stage 4 -->
    <_>
      <maxWeakCount>10</maxWeakCount>
      <stageThreshold>-1.0413931608200073e+00</stageThreshold>
      <weakClassifiers>
        <_>
          <internalNodes>
            0 -1 39 3.7513583898544312e-02</internalNodes>
          <leafValues>
            -7.4149662256240845e-01 2.4061809480190277e-01</leafValues></_>
        <_>
          <internalNodes>
            0 -1 18 -4.4097847421653569e-04</internalNodes>
          <leafValues>
            -6.0451972484588623e-01 1.5728983283042908e-01</leafValues></_>
        <_>
          <internalNodes>
            0 -1 23 7.6606228947639465e-02</internalNodes>
          <leafValues>
            -1.9003847241401672e-01 5.5382263660430908e-01</leafValues></_>
        <_>
          <internalNodes>
            0 -1 26 2.3206791374832392e-03</internalNodes>
          <leafValues>
            1.6803720593452454e-01 -6.2385052442550659e-01</leafValues></_>
        <_>
          <internalNodes>
            0 -1 11 -1.0000073816627264e-03</internalNodes>
          <leafValues>
            -7.1629238128662109e-01 1.5513877570629120e-01</leafValues></_>
        <_>
          <internalNodes>
            0 -1 61 2.0223790779709816e-03</internalNodes>
          <leafValues>
            -6.3048493862152100e-01 1.3073644042015076e-01</leafValues></_>
        <_>
          <internalNodes>
            0 -1 32 -4.6983305364847183e-03</internalNodes>
          <leafValues>
            -3.0571350455284119e-01 4.1242825984954834e-01</leafValues></_>
        <_>
          <internalNodes>
            0 -1 14 -7.5807492248713970e-04</internalNodes>
          <leafValues>
            -7.1785491704940796e-01 1.3925066590309143e-01</leafValues></_>
        <_>
          <internalNodes>
            0 -1 2 4.4120617531007156e-05</internalNodes>
          <leafValues>
            -3.9658576250076294e-01 2.5658184289932251e-01</leafValues></_>
        <_>
          <internalNodes>
            0 -1 57 2.8686437290161848e-03</internalNodes>
          <leafValues>
            -3.7890505790710449e-01 3.0335709452629089e-01</leafValues></_></weakClassifiers></_>
    <!-- stage 5 -->
    <_>
      <maxWeakCount>10</maxWeakCount>
      <stageThreshold>-8.6612790822982788e-01</stageThreshold>
      <weakClassifiers>
        <_>
          <internalNodes>
            0 -1 41 6.5779276192188263e-03</internalNodes>
          <leafValues>
            -4.1853034496307373e-01 4.5644599199295044e-01</leafValues></_>
        <_>
          <internalNodes>
            0 -1 28 -2.2641506511718035e-03</internalNodes>
          <leafValues>
            8.2026511430740356e-01 -1.4356487989425659e-01</leafValues></_>
        <_>
          <internalNodes>
            0 -1 34 1.1022349353879690e-03</internalNodes>
          <leafValues>
            -2.8389245271682739e-01 5.5169558525085449e-01</leafValues></_>
        <_>
          <internalNodes>
            0 -1 13 -7.0957629941403866e-04</internalNodes>
          <leafValues>
            -8.0915611982345581e-01 2.1865458786487579e-01</leafValues></_>
        <_>
          <internalNodes>
            0 -1 0 -2.6092666666954756e-04</internalNodes>
          <leafValues>
            6.9179373979568481e-01 -2.0726026594638824e-01</leafValues></_>
        <_>
          <internalNodes>
            0 -1 46 5.6738196872174740e-04</internalNodes>
          <leafValues>
            -5.9428805112838745e-01 2.0619633793830872e-01</leafValues></_>
        <_>
          <internalNodes>
            0 -1 60 -1.0133827105164528e-02</internalNodes>
          <leafValues>
            5.7338178157806396e-01 -2.3046506941318512e-01</leafValues></_>
        <_>
          <internalNodes>
            0 -1 62 -5.7786132674664259e-04</internalNodes>
          <leafValues>
            -8.0750578641891479e-01 1.5538454055786133e-01</leafValues></_>
        <_>
          <internalNodes>
            0 -1 52 -2.6339674368500710e-03</internalNodes>
          <leafValues>
            2.8798568248748779e-01 -3.5109925270080566e-01</leafValues></_>
        <_>
          <internalNodes>
            0 -1 20 -1.4385392423719168e-03</internalNodes>
          <leafValues>
            3.9091134071350098e-01 -2.5841334462165833e-01</leafValues></_></weakClassifiers></_>
    <!-- stage 6 -->
    <_>
      <maxWeakCount>8</maxWeakCount>
      <stageThreshold>-1.0044382810592651e+00</stageThreshold>
      <weakClassifiers>
        <_>
          <internalNodes>
            0 -1 44 4.3957070447504520e-03</internalNodes>
          <leafValues>
            -4.3977591395378113e-01 6.4609050750732422e-01</leafValues></_>
        <_>
          <internalNodes>
            0 -1 7 2.6671070605516434e-02</internalNodes>
          <leafValues>
            -6.9461041688919067e-01 3.8758951425552368e-01</leafValues></_>
        <_>
          <internalNodes>
            0 -1 25 1.1345227248966694e-02</internalNodes>
          <leafValues>
            -6.0966330766677856e-01 2.4015095829963684e-01</leafValues></_>
        <_>
          <internalNodes>
            0 -1 29 -2.6460373774170876e-03</internalNodes>
          <leafValues>
            7.4773490428924561e-01 -2.2889702022075653e-01</leafValues></_>
        <_>
          <internalNodes>
            0 -1 47 1.7844559624791145e-04</internalNodes>
          <leafValues>
            4.5982095599174500e-01 -3.3358865976333618e-01</leafValues></_>
        <_>
          <internalNodes>
            0 -1 8 4.5590359717607498e-02</internalNodes>
          <leafValues>
            -3.4559941291809082e-01 5.0203067064285278e-01</leafValues></_>
        <_>
          <internalNodes>
            0 -1 54 7.4997588992118835e-02</internalNodes>
          <leafValues>
            -2.4191659688949585e-01 6.6256761550903320e-01</leafValues></_>
        <_>
          <internalNodes>
            0 -1 22 -5.8565987274050713e-03</internalNodes>
          <leafValues>
            -9.0077322721481323e-01 2.4638915061950684e-01</leafValues></_></weakClassifiers></_>
    <!-- stage 7 -->
    <_>
      <maxWeakCount>6</maxWeakCount>
      <stageThreshold>-9.3115812540054321e-01</stageThreshold>
      <weakClassifiers>
        <_>
          <internalNodes>
            0 -1 48 -3.8533688057214022e-03</internalNodes>
          <leafValues>
            4.7397258877754211e-01 -7.3617023229598999e-01</leafValues></_>
        <_>
          <internalNodes>
            0 -1 35 2.0764179527759552e-02</internalNodes>
          <leafValues>
            -2.8587660193443298e-01 7.7856904268264771e-01</leafValues></_>
        <_>
          <internalNodes>
            0 -1 58 2.5446102023124695e-02</internalNodes>
          <leafValues>
            -2.8318318724632263e-01 5.5748212337493896e-01</leafValues></_>
        <_>
          <internalNodes>
            0 -1 12 5.1209583878517151e-02</internalNodes>
          <leafValues>
            1.5932404994964600e-01 -8.1104522943496704e-01</leafValues></_>
        <_>
          <internalNodes>
            0 -1 4 8.1012155860662460e-03</internalNodes>
          <leafValues>
            -7.2535353899002075e-01 2.0346041023731232e-01</leafValues></_>
        <_>
          <internalNodes>
            0 -1 3 -4.9993224820354953e-05</internalNodes>
          <leafValues>
            -6.1234444379806519e-01 1.4099135994911194e-01</leafValues></_></weakClassifiers></_>
    <!-- stage 8 -->
    <_>
      <maxWeakCount>13</maxWeakCount>
      <stageThreshold>-1.0122454166412354e+00</stageThreshold>
      <weakClassifiers>
        <_>
          <internalNodes>
            0 -1 10 1.9894208759069443e-02</internalNodes>
          <leafValues>
            -4.0372669696807861e-01 4.6762588620185852e-01</leafValues></_>
        <_>
          <internalNodes>
            0 -1 1 -1.0222697164863348e-04</internalNodes>
          <leafValues>
            3.9193347096443176e-01 -2.5728496909141541e-01</leafValues></_>
        <_>
          <internalNodes>
            0 -1 50 1.0716347023844719e-02</internalNodes>
          <leafValues>
            -3.6522278189659119e-01 3.1433045864105225e-01</leafValues></_>
        <_>
          <internalNodes>
            0 -1 38 -2.5992346927523613e-03</internalNodes>
          <leafValues>
            -7.9924225807189941e-01 1.1717394739389420e-01</leafValues></_>
        <_>
          <internalNodes>
            0 -1 37 2.4462926667183638e-03</internalNodes>
          <leafValues>
            -1.9980348646640778e-01 5.2506792545318604e-01</leafValues></_>
        <_>
          <internalNodes>
            0 -1 24 -2.8219635132700205e-03</internalNodes>
          <leafValues>
            5.2216118574142456e-01 -2.2846774756908417e-01</leafValues></_>
        <_>
          <internalNodes>
            0 -1 63 -7.0872643846087158e-05</internalNodes>
          <leafValues>
            -5.1903200149536133e-01 2.0126585662364960e-01</leafValues></_>
        <_>
          <internalNodes>
            0 -1 40 -4.4822983443737030e-02</internalNodes>
          <leafValues>
            5.9503483772277832e-01 -1.5227797627449036e-01</leafValues></_>
        <_>
          <internalNodes>
            0 -1 21 -2.4093237880151719e-04</internalNodes>
          <leafValues>
            -7.5929033756256104e-01 1.0474867373704910e-01</leafValues></_>
        <_>
          <internalNodes>
            0 -1 30 -5.0493166781961918e-04</internalNodes>
          <leafValues>
            5.2915513515472412e-01 -1.8922990560531616e-01</leafValues></_>
        <_>
          <internalNodes>
            0 -1 19 -1.6236712690442801e-04</internalNodes>
          <leafValues>
            -5.8005774021148682e-01 1.7950588464736938e-01</leafValues></_>
        <_>
          <internalNodes>
            0 -1 49 -3.0123637989163399e-03</internalNodes>
          <leafValues>
            -6.1980628967285156e-01 1.4341652393341064e-01</leafValues></_>
        <_>
          <internalNodes>
            0 -1 43 6.3786888495087624e-04</internalNodes>
          <leafValues>
            1.1766763776540756e-01 -6.3854736089706421e-01</leafValues></_></weakClassifiers></_></stages>
  <features>
    <_>
      <rects>
        <_>
          0 0 2 1 -1.</_>
        <_>
          1 0 1 1 2.</_></rects>
      <tilted>0</tilted></_>
    <_>
      <rects>
        <_>
          0 0 3 1 -1.</_>
        <_>
          1 0 1 1 3.</_></rects>
      <tilted>0</tilted></_>
    <_>
      <rects>
        <_>
          0 0 2 2 -1.</_>
        <_>
          0 0 1 1 2.</_>
        <_>
          1 1 1 1 2.</_></rects>
      <tilted>0</tilted></_>
    <_>
      <rects>
        <_>
          0 0 4 2 -1.</_>
        <_>
          0 0 2 1 2.</_>
        <_>
          2 1 2 1 2.</_></rects>
      <tilted>0</tilted></_>
    <_>
      <rects>
        <_>
          0 1 18 17 -1.</_>
        <_>
          9 1 9 17 2.</_></rects>
      <tilted>0</tilted></_>
    <_>
      <rects>
        <_>
          0 3 14 21 -1.</_>
        <_>
          7 3 7 21 2.</_></rects>
      <tilted>0</tilted></_>
    <_>
      <rects>
        <_>
          0 6 10 16 -1.</_>
        <_>
          0 6 5 8 2.</_>
        <_>
          5 14 5 8 2.</_></rects>
      <tilted>0</tilted></_>
    <_>
      <rects>
        <_>
          0 20 8 4 -1.</_>
        <_>
          4 20 4 4 2.</_></rects>
      <tilted>0</tilted></_>
    <_>
      <rects>
        <_>
          0 22 24 1 -1.</_>
        <_>
          8 22 8 1 3.</_></rects>
      <tilted>0</tilted></_>
    <_>
      <rects>
        <_>
          1 0 6 8 -1.</_>
        <_>
          1 4 6 4 2.</_></rects>
      <tilted>0</tilted></_>
    <_>
      <rects>
        <_>
          1 2 6 9 -1.</_>
        <_>
          1 5 6 3 3.</_></rects>
      <tilted>0</tilted></_>
    <_>
      <rects>
        <_>
          1 3 3 5 -1.</_>
        <_>
          2 3 1 5 3.</_></rects>
      <tilted>0</tilted></_>
    <_>
      <rects>
        <_>
          1 4 21 5 -1.</_>
        <_>
          8 4 7 5 3.</_></rects>
      <tilted>0</tilted></_>
    <_>
      <rects>
        <_>
          1 6 4 3 -1.</_>
        <_>
          1 7 4 1 3.</_></rects>
      <tilted>0</tilted></_>
    <_>
      <rects>
        <_>
          1 7 5 3 -1.</_>
        <_>
          1 8 5 1 3.</_></rects>
      <tilted>0</tilted></_>
    <_>
      <rects>
        <_>
          1 10 8 14 -1.</_>
        <_>
          1 10 4 7 2.</_>
        <_>
          5 17 4 7 2.</_></rects>
      <tilted>0</tilted></_>
    <_>
      <rects>
        <_>
          1 13 9 10 -1.</_>
        <_>
          4 13 3 10 3.</_></rects>
      <tilted>0</tilted></_>
    <_>
      <rects>
        <_>
          2 0 14 6 -1.</_>
        <_>
          2 0 7 3 2.</_>
        <_>
          9 3 7 3 2.</_></rects>
      <tilted>0</tilted></_>
    <_>
      <rects>
        <_>
          2 2 3 3 -1.</_>
        <_>
          3 2 1 3 3.</_></rects>
      <tilted>0</tilted></_>
    <_>
      <rects>
        <_>
          2 3 1 3 -1.</_>
        <_>
          2 4 1 1 3.</_></rects>
      <tilted>0</tilted></_>
    <_>
      <rects>
        <_>
          2 5 14 3 -1.</_>
        <_>
          9 5 7 3 2.</_></rects>
      <tilted>0</tilted></_>
    <_>
      <rects>
        <_>
          2 6 1 3 -1.</_>
        <_>
          2 7 1 1 3.</_></rects>
      <tilted>0</tilted></_>
    <_>
      <rects>
        <_>
          2 7 20 3 -1.</_>
        <_>
          2 8 20 1 3.</_></rects>
      <tilted>0</tilted></_>
    <_>
      <rects>
        <_>
          2 21 21 2 -1.</_>
        <_>
          9 21 7 2 3.</_></rects>
      <tilted>0</tilted></_>
    <_>
      <rects>
        <_>
          2 21 12 3 -1.</_>
        <_>
          2 22 12 1 3.</_></rects>
      <tilted>0</tilted></_>
    <_>
      <rects>
        <_>
          3 0 4 10 -1.</_>
        <_>
          3 5 4 5 2.</_></rects>
      <tilted>0</tilted></_>
    <_>
      <rects>
        <_>
          3 8 1 9 -1.</_>
        <_>
          3 11 1 3 3.</_></rects>
      <tilted>0</tilted></_>
    <_>
      <rects>
        <_>
          3 21 17 3 -1.</_>
        <_>
          3 22 17 1 3.</_></rects>
      <tilted>0</tilted></_>
    <_>
      <rects>
        <_>
          4 21 8 3 -1.</_>
        <_>
          4 22 8 1 3.</_></rects>
      <tilted>0</tilted></_>
    <_>
      <rects>
        <_>
          4 21 20 3 -1.</_>
        <_>
          4 22 20 1 3.</_></rects>
      <tilted>0</tilted></_>
    <_>
      <rects>
        <_>
          4 22 10 2 -1.</_>
        <_>
          4 23 10 1 2.</_></rects>
      <tilted>0</tilted></_>
    <_>
      <rects>
        <_>
          5 0 15 1 -1.</_>
        <_>
          10 0 5 1 3.</_></rects>
      <tilted>0</tilted></_>
    <_>
      <rects>
        <_>
          5 1 10 8 -1.</_>
        <_>
          5 5 10 4 2.</_></rects>
      <tilted>0</tilted></_>
    <_>
      <rects>
        <_>
          5 3 6 10 -1.</_>
        <_>
          7 3 2 10 3.</_></rects>
      <tilted>0</tilted></_>
    <_>
      <rects>
        <_>
          5 21 9 3 -1.</_>
        <_>
          5 22 9 1 3.</_></rects>
      <tilted>0</tilted></_>
    <_>
      <rects>
        <_>
          6 1 12 1 -1.</_>
        <_>
          10 1 4 1 3.</_></rects>
      <tilted>0</tilted></_>
    <_>
      <rects>
        <_>
          6 4 6 20 -1.</_>
        <_>
          6 14 6 10 2.</_></rects>
      <tilted>0</tilted></_>
    <_>
      <rects>
        <_>
          6 21 14 3 -1.</_>
        <_>
          6 22 14 1 3.</_></rects>
      <tilted>0</tilted></_>
    <_>
      <rects>
        <_>
          8 7 5 3 -1.</_>
        <_>
          8 8 5 1 3.</_></rects>
      <tilted>0</tilted></_>
    <_>
      <rects>
        <_>
          8 9 9 7 -1.</_>
        <_>
          11 9 3 7 3.</_></rects>
      <tilted>0</tilted></_>
    <_>
      <rects>
        <_>
          8 11 14 12 -1.</_>
        <_>
          8 11 7 6 2.</_>
        <_>
          15 17 7 6 2.</_></rects>
      <tilted>0</tilted></_>
    <_>
      <rects>
        <_>
          10 0 2 11 -1.</_>
        <_>
          11 0 1 11 2.</_></rects>
      <tilted>0</tilted></_>
    <_>
      <rects>
        <_>
          10 1 14 4 -1.</_>
        <_>
          10 1 7 2 2.</_>
        <_>
          17 3 7 2 2.</_></rects>
      <tilted>0</tilted></_>
    <_>
      <rects>
        <_>
          10 6 2 3 -1.</_>
        <_>
          10 7 2 1 3.</_></rects>
      <tilted>0</tilted></_>
    <_>
      <rects>
        <_>
          10 7 6 1 -1.</_>
        <_>
          12 7 2 1 3.</_></rects>
      <tilted>0</tilted></_>
    <_>
      <rects>
        <_>
          11 7 2 16 -1.</_>
        <_>
          11 7 1 8 2.</_>
        <_>
          12 15 1 8 2.</_></rects>
      <tilted>0</tilted></_>
    <_>
      <rects>
        <_>
          11 10 5 2 -1.</_>
        <_>
          11 11 5 1 2.</_></rects>
      <tilted>0</tilted></_>
    <_>
      <rects>
        <_>
          11 22 6 2 -1.</_>
        <_>
          11 23 6 1 2.</_></rects>
      <tilted>0</tilted></_>
    <_>
      <rects>
        <_>
          12 8 4 2 -1.</_>
        <_>
          14 8 2 2 2.</_></rects>
      <tilted>0</tilted></_>
    <_>
      <rects>
        <_>
          13 7 4 4 -1.</_>
        <_>
          13 7 2 2 2.</_>
        <_>
          15 9 2 2 2.</_></rects>
      <tilted>0</tilted></_>
    <_>
      <rects>
        <_>
          14 1 7 4 -1.</_>
        <_>
          14 3 7 2 2.</_></rects>
      <tilted>0</tilted></_>
    <_>
      <rects>
        <_>
          14 2 3 12 -1.</_>
        <_>
          15 2 1 12 3.</_></rects>
      <tilted>0</tilted></_>
    <_>
      <rects>
        <_>
          14 2 6 3 -1.</_>
        <_>
          16 2 2 3 3.</_></rects>
      <tilted>0</tilted></_>
    <_>
      <rects>
        <_>
          14 7 10 14 -1.</_>
        <_>
          14 7 5 7 2.</_>
        <_>
          19 14 5 7 2.</_></rects>
      <tilted>0</tilted></_>
    <_>
      <rects>
        <_>
          15 4 2 20 -1.</_>
        <_>
          15 14 2 10 2.</_></rects>
      <tilted>0</tilted></_>
    <_>
      <rects>
        <_>
          16 6 6 18 -1.</_>
        <_>
          16 6 3 9 2.</_>
        <_>
          19 15 3 9 2.</_></rects>
      <tilted>0</tilted></_>
    <_>
      <rects>
        <_>
          16 10 8 3 -1.</_>
        <_>
          16 11 8 1 3.</_></rects>
      <tilted>0</tilted></_>
    <_>
      <rects>
        <_>
          16 16 6 8 -1.</_>
        <_>
          18 16 2 8 3.</_></rects>
      <tilted>0</tilted></_>
    <_>
      <rects>
        <_>
          17 11 6 13 -1.</_>
        <_>
          19 11 2 13 3.</_></rects>
      <tilted>0</tilted></_>
    <_>
      <rects>
        <_>
          18 8 6 16 -1.</_>
        <_>
          21 8 3 16 2.</_></rects>
      <tilted>0</tilted></_>
    <_>
      <rects>
        <_>
          18 21 6 3 -1.</_>
        <_>
          20 21 2 3 3.</_></rects>
      <tilted>0</tilted></_>
    <_>
      <rects>
        <_>
          19 1 1 4 -1.</_>
        <_>
          19 3 1 2 2.</_></rects>
      <tilted>0</tilted></_>
    <_>
      <rects>
        <_>
          19 6 4 3 -1.</_>
        <_>
          19 7 4 1 3.</_></rects>
      <tilted>0</tilted></_>
    <_>
      <rects>
        <_>
          20 5 4 3 -1.</_>
        <_>
          20 6 4 1 3.</_></rects>
      <tilted>0</tilted></_>
    <_>
      <rects>
        <_>
          20 11 1 3 -1.</_>
        <_>
          20 12 1 1 3.</_></rects>
      <tilted>0</tilted></_>
    <_>
      <rects>
        <_>
          22 5 2 3 -1.</_>
        <_>
          22 6 2 1 3.</_></rects>
      <tilted>0</tilted></_></features></cascade>
</opencv_storage>
