<?xml version="1.0"?>
<opencv_storage>
<stage4>
  <maxWeakCount>10</maxWeakCount>
  <stageThreshold>-1.0413931608200073e+00</stageThreshold>
  <weakClassifiers>
    <_>
      <internalNodes>
        0 -1 95317 3.7513583898544312e-02</internalNodes>
      <leafValues>
        -7.4149662256240845e-01 2.4061809480190277e-01</leafValues></_>
    <_>
      <internalNodes>
        0 -1 27751 -4.4097847421653569e-04</internalNodes>
      <leafValues>
        -6.0451972484588623e-01 1.5728983283042908e-01</leafValues></_>
    <_>
      <internalNodes>
        0 -1 37844 7.6606228947639465e-02</internalNodes>
      <leafValues>
        -1.9003847241401672e-01 5.5382263660430908e-01</leafValues></_>
    <_>
      <internalNodes>
        0 -1 44353 2.3206791374832392e-03</internalNodes>
      <leafValues>
        1.6803720593452454e-01 -6.2385052442550659e-01</leafValues></_>
    <_>
      <internalNodes>
        0 -1 16318 -1.0000073816627264e-03</internalNodes>
      <leafValues>
        -7.1629238128662109e-01 1.5513877570629120e-01</leafValues></_>
    <_>
      <internalNodes>
        0 -1 155434 2.0223790779709816e-03</internalNodes>
      <leafValues>
        -6.3048493862152100e-01 1.3073644042015076e-01</leafValues></_>
    <_>
      <internalNodes>
        0 -1 61896 -4.6983305364847183e-03</internalNodes>
      <leafValues>
        -3.0571350455284119e-01 4.1242825984954834e-01</leafValues></_>
    <_>
      <internalNodes>
        0 -1 19790 -7.5807492248713970e-04</internalNodes>
      <leafValues>
        -7.1785491704940796e-01 1.3925066590309143e-01</leafValues></_>
    <_>
      <internalNodes>
        0 -1 4 4.4120617531007156e-05</internalNodes>
      <leafValues>
        -3.9658576250076294e-01 2.5658184289932251e-01</leafValues></_>
    <_>
      <internalNodes>
        0 -1 147871 2.8686437290161848e-03</internalNodes>
      <leafValues>
        -3.7890505790710449e-01 3.0335709452629089e-01</leafValues></_></weakClassifiers></stage4>
</opencv_storage>
