<?xml version="1.0"?>
<opencv_storage>
<stage2>
  <maxWeakCount>6</maxWeakCount>
  <stageThreshold>-1.0483906269073486e+00</stageThreshold>
  <weakClassifiers>
    <_>
      <internalNodes>
        0 -1 62955 -1.9434498623013496e-02</internalNodes>
      <leafValues>
        6.3354039192199707e-01 -7.3381292819976807e-01</leafValues></_>
    <_>
      <internalNodes>
        0 -1 107839 2.0273953676223755e-02</internalNodes>
      <leafValues>
        -4.8622855544090271e-01 5.1861292123794556e-01</leafValues></_>
    <_>
      <internalNodes>
        0 -1 3613 2.1397098898887634e-02</internalNodes>
      <leafValues>
        -8.3966052532196045e-01 1.8445561826229095e-01</leafValues></_>
    <_>
      <internalNodes>
        0 -1 147032 1.7090654000639915e-03</internalNodes>
      <leafValues>
        1.8718014657497406e-01 -7.9059231281280518e-01</leafValues></_>
    <_>
      <internalNodes>
        0 -1 117897 -2.3564659059047699e-03</internalNodes>
      <leafValues>
        4.8494130373001099e-01 -3.1251174211502075e-01</leafValues></_>
    <_>
      <internalNodes>
        0 -1 161570 -2.6866019470617175e-04</internalNodes>
      <leafValues>
        -6.8492621183395386e-01 2.2662647068500519e-01</leafValues></_></weakClassifiers></stage2>
</opencv_storage>
