<?xml version="1.0"?>
<opencv_storage>
<stage6>
  <maxWeakCount>8</maxWeakCount>
  <stageThreshold>-1.0044382810592651e+00</stageThreshold>
  <weakClassifiers>
    <_>
      <internalNodes>
        0 -1 110644 4.3957070447504520e-03</internalNodes>
      <leafValues>
        -4.3977591395378113e-01 6.4609050750732422e-01</leafValues></_>
    <_>
      <internalNodes>
        0 -1 13050 2.6671070605516434e-02</internalNodes>
      <leafValues>
        -6.9461041688919067e-01 3.8758951425552368e-01</leafValues></_>
    <_>
      <internalNodes>
        0 -1 38241 1.1345227248966694e-02</internalNodes>
      <leafValues>
        -6.0966330766677856e-01 2.4015095829963684e-01</leafValues></_>
    <_>
      <internalNodes>
        0 -1 60357 -2.6460373774170876e-03</internalNodes>
      <leafValues>
        7.4773490428924561e-01 -2.2889702022075653e-01</leafValues></_>
    <_>
      <internalNodes>
        0 -1 121324 1.7844559624791145e-04</internalNodes>
      <leafValues>
        4.5982095599174500e-01 -3.3358865976333618e-01</leafValues></_>
    <_>
      <internalNodes>
        0 -1 13340 4.5590359717607498e-02</internalNodes>
      <leafValues>
        -3.4559941291809082e-01 5.0203067064285278e-01</leafValues></_>
    <_>
      <internalNodes>
        0 -1 140808 7.4997588992118835e-02</internalNodes>
      <leafValues>
        -2.4191659688949585e-01 6.6256761550903320e-01</leafValues></_>
    <_>
      <internalNodes>
        0 -1 32502 -5.8565987274050713e-03</internalNodes>
      <leafValues>
        -9.0077322721481323e-01 2.4638915061950684e-01</leafValues></_></weakClassifiers></stage6>
</opencv_storage>
