<?xml version="1.0"?>
<opencv_storage>
<stage8>
  <maxWeakCount>13</maxWeakCount>
  <stageThreshold>-1.0122454166412354e+00</stageThreshold>
  <weakClassifiers>
    <_>
      <internalNodes>
        0 -1 15743 1.9894208759069443e-02</internalNodes>
      <leafValues>
        -4.0372669696807861e-01 4.6762588620185852e-01</leafValues></_>
    <_>
      <internalNodes>
        0 -1 2 -1.0222697164863348e-04</internalNodes>
      <leafValues>
        3.9193347096443176e-01 -2.5728496909141541e-01</leafValues></_>
    <_>
      <internalNodes>
        0 -1 134557 1.0716347023844719e-02</internalNodes>
      <leafValues>
        -3.6522278189659119e-01 3.1433045864105225e-01</leafValues></_>
    <_>
      <internalNodes>
        0 -1 94438 -2.5992346927523613e-03</internalNodes>
      <leafValues>
        -7.9924225807189941e-01 1.1717394739389420e-01</leafValues></_>
    <_>
      <internalNodes>
        0 -1 80679 2.4462926667183638e-03</internalNodes>
      <leafValues>
        -1.9980348646640778e-01 5.2506792545318604e-01</leafValues></_>
    <_>
      <internalNodes>
        0 -1 37872 -2.8219635132700205e-03</internalNodes>
      <leafValues>
        5.2216118574142456e-01 -2.2846774756908417e-01</leafValues></_>
    <_>
      <internalNodes>
        0 -1 158515 -7.0872643846087158e-05</internalNodes>
      <leafValues>
        -5.1903200149536133e-01 2.0126585662364960e-01</leafValues></_>
    <_>
      <internalNodes>
        0 -1 96305 -4.4822983443737030e-02</internalNodes>
      <leafValues>
        5.9503483772277832e-01 -1.5227797627449036e-01</leafValues></_>
    <_>
      <internalNodes>
        0 -1 31110 -2.4093237880151719e-04</internalNodes>
      <leafValues>
        -7.5929033756256104e-01 1.0474867373704910e-01</leafValues></_>
    <_>
      <internalNodes>
        0 -1 60407 -5.0493166781961918e-04</internalNodes>
      <leafValues>
        5.2915513515472412e-01 -1.8922990560531616e-01</leafValues></_>
    <_>
      <internalNodes>
        0 -1 28655 -1.6236712690442801e-04</internalNodes>
      <leafValues>
        -5.8005774021148682e-01 1.7950588464736938e-01</leafValues></_>
    <_>
      <internalNodes>
        0 -1 130949 -3.0123637989163399e-03</internalNodes>
      <leafValues>
        -6.1980628967285156e-01 1.4341652393341064e-01</leafValues></_>
    <_>
      <internalNodes>
        0 -1 110179 6.3786888495087624e-04</internalNodes>
      <leafValues>
        1.1766763776540756e-01 -6.3854736089706421e-01</leafValues></_></weakClassifiers></stage8>
</opencv_storage>
