<?xml version="1.0"?>
<opencv_storage>
<stage3>
  <maxWeakCount>6</maxWeakCount>
  <stageThreshold>-1.1557937860488892e+00</stageThreshold>
  <weakClassifiers>
    <_>
      <internalNodes>
        0 -1 26298 -3.1624197959899902e-02</internalNodes>
      <leafValues>
        4.3478259444236755e-01 -6.8965518474578857e-01</leafValues></_>
    <_>
      <internalNodes>
        0 -1 74149 8.3895429968833923e-02</internalNodes>
      <leafValues>
        -7.5383156538009644e-01 2.0187683403491974e-01</leafValues></_>
    <_>
      <internalNodes>
        0 -1 153878 -2.1193057298660278e-02</internalNodes>
      <leafValues>
        2.3659302294254303e-01 -5.9848242998123169e-01</leafValues></_>
    <_>
      <internalNodes>
        0 -1 23284 2.0216153934597969e-02</internalNodes>
      <leafValues>
        -3.5393518209457397e-01 3.4201499819755554e-01</leafValues></_>
    <_>
      <internalNodes>
        0 -1 159106 9.4465431175194681e-05</internalNodes>
      <leafValues>
        3.1617254018783569e-01 -3.8791140913963318e-01</leafValues></_>
    <_>
      <internalNodes>
        0 -1 134679 -3.5777115263044834e-03</internalNodes>
      <leafValues>
        2.4226161837577820e-01 -4.5212423801422119e-01</leafValues></_></weakClassifiers></stage3>
</opencv_storage>
