<?xml version="1.0"?>
<opencv_storage>
<cascade>
  <stageType>BOOST</stageType>
  <featureType>HAAR</featureType>
  <height>24</height>
  <width>24</width>
  <stageParams>
    <boostType>GAB</boostType>
    <minHitRate>9.9500000476837158e-01</minHitRate>
    <maxFalseAlarm>5.0000000000000000e-01</maxFalseAlarm>
    <weightTrimRate>9.4999999999999996e-01</weightTrimRate>
    <maxDepth>1</maxDepth>
    <maxWeakCount>100</maxWeakCount></stageParams>
  <featureParams>
    <maxCatCount>0</maxCatCount>
    <featSize>1</featSize>
    <mode>BASIC</mode></featureParams>
  <stageNum>10</stageNum>
  <stages>
    <!-- stage 0 -->
    <_>
      <maxWeakCount>3</maxWeakCount>
      <stageThreshold>-9.8896121978759766e-01</stageThreshold>
      <weakClassifiers>
        <_>
          <internalNodes>
            0 -1 28 1.2742710113525391e-01</internalNodes>
          <leafValues>
            -9.2170816659927368e-01 8.1191223859786987e-01</leafValues></_>
        <_>
          <internalNodes>
            0 -1 32 3.5066768527030945e-02</internalNodes>
          <leafValues>
            -8.1428986787796021e-01 6.7263603210449219e-01</leafValues></_>
        <_>
          <internalNodes>
            0 -1 57 2.8127782046794891e-02</internalNodes>
          <leafValues>
            -5.8335864543914795e-01 7.4703681468963623e-01</leafValues></_></weakClassifiers></_>
    <!-- stage 1 -->
    <_>
      <maxWeakCount>3</maxWeakCount>
      <stageThreshold>-1.3312008380889893e+00</stageThreshold>
      <weakClassifiers>
        <_>
          <internalNodes>
            0 -1 24 -5.9712873771786690e-03</internalNodes>
          <leafValues>
            7.6357829570770264e-01 -8.3275258541107178e-01</leafValues></_>
        <_>
          <internalNodes>
            0 -1 61 -3.6183767020702362e-02</internalNodes>
          <leafValues>
            5.7304990291595459e-01 -8.4890174865722656e-01</leafValues></_>
        <_>
          <internalNodes>
            0 -1 9 5.6221326813101768e-03</internalNodes>
          <leafValues>
            -7.7407407760620117e-01 3.5045352578163147e-01</leafValues></_></weakClassifiers></_>
    <!-- stage 2 -->
    <_>
      <maxWeakCount>4</maxWeakCount>
      <stageThreshold>-1.3475804328918457e+00</stageThreshold>
      <weakClassifiers>
        <_>
          <internalNodes>
            0 -1 2 2.8741398826241493e-02</internalNodes>
          <leafValues>
            -7.8245615959167480e-01 7.0793652534484863e-01</leafValues></_>
        <_>
          <internalNodes>
            0 -1 10 -1.8416022881865501e-02</internalNodes>
          <leafValues>
            5.3820407390594482e-01 -7.3007035255432129e-01</leafValues></_>
        <_>
          <internalNodes>
            0 -1 51 9.9173307418823242e-02</internalNodes>
          <leafValues>
            -8.1965821981430054e-01 3.1949117779731750e-01</leafValues></_>
        <_>
          <internalNodes>
            0 -1 29 7.8391941497102380e-04</internalNodes>
          <leafValues>
            -5.0578838586807251e-01 4.9779728055000305e-01</leafValues></_></weakClassifiers></_>
    <!-- stage 3 -->
    <_>
      <maxWeakCount>5</maxWeakCount>
      <stageThreshold>-8.4541952610015869e-01</stageThreshold>
      <weakClassifiers>
        <_>
          <internalNodes>
            0 -1 31 7.2607649490237236e-03</internalNodes>
          <leafValues>
            -7.9908674955368042e-01 4.5931759476661682e-01</leafValues></_>
        <_>
          <internalNodes>
            0 -1 40 4.7010271809995174e-03</internalNodes>
          <leafValues>
            -8.4718424081802368e-01 2.2233994305133820e-01</leafValues></_>
        <_>
          <internalNodes>
            0 -1 56 6.3459447119385004e-05</internalNodes>
          <leafValues>
            3.5501739382743835e-01 -4.0667760372161865e-01</leafValues></_>
        <_>
          <internalNodes>
            0 -1 25 5.1772926002740860e-02</internalNodes>
          <leafValues>
            -6.8815678358078003e-01 2.2804027795791626e-01</leafValues></_>
        <_>
          <internalNodes>
            0 -1 41 2.8479425964178517e-05</internalNodes>
          <leafValues>
            -6.6113555431365967e-01 2.1779380738735199e-01</leafValues></_></weakClassifiers></_>
    <!-- stage 4 -->
    <_>
      <maxWeakCount>7</maxWeakCount>
      <stageThreshold>-1.0132654905319214e+00</stageThreshold>
      <weakClassifiers>
        <_>
          <internalNodes>
            0 -1 33 2.5514476001262665e-02</internalNodes>
          <leafValues>
            -7.0984458923339844e-01 3.3660933375358582e-01</leafValues></_>
        <_>
          <internalNodes>
            0 -1 46 3.8879239582456648e-05</internalNodes>
          <leafValues>
            4.1787347197532654e-01 -3.4929510951042175e-01</leafValues></_>
        <_>
          <internalNodes>
            0 -1 16 -3.6903534783050418e-04</internalNodes>
          <leafValues>
            -8.5884314775466919e-01 1.6091533005237579e-01</leafValues></_>
        <_>
          <internalNodes>
            0 -1 35 1.1180597357451916e-03</internalNodes>
          <leafValues>
            -5.9397107362747192e-01 1.8005509674549103e-01</leafValues></_>
        <_>
          <internalNodes>
            0 -1 11 -5.6449801195412874e-04</internalNodes>
          <leafValues>
            -7.6543170213699341e-01 1.3758541643619537e-01</leafValues></_>
        <_>
          <internalNodes>
            0 -1 52 1.5710799198132008e-04</internalNodes>
          <leafValues>
            2.0338419079780579e-01 -5.8728361129760742e-01</leafValues></_>
        <_>
          <internalNodes>
            0 -1 53 -5.5550184333696961e-04</internalNodes>
          <leafValues>
            1.3934175670146942e-01 -6.3606584072113037e-01</leafValues></_></weakClassifiers></_>
    <!-- stage 5 -->
    <_>
      <maxWeakCount>7</maxWeakCount>
      <stageThreshold>-7.6014828681945801e-01</stageThreshold>
      <weakClassifiers>
        <_>
          <internalNodes>
            0 -1 54 -5.2916897402610630e-05</internalNodes>
          <leafValues>
            2.0588235557079315e-01 -7.9032260179519653e-01</leafValues></_>
        <_>
          <internalNodes>
            0 -1 43 3.5294378176331520e-04</internalNodes>
          <leafValues>
            -3.4056365489959717e-01 4.6308198571205139e-01</leafValues></_>
        <_>
          <internalNodes>
            0 -1 13 7.1913440478965640e-04</internalNodes>
          <leafValues>
            2.2124096751213074e-01 -7.1217066049575806e-01</leafValues></_>
        <_>
          <internalNodes>
            0 -1 63 -1.1943783611059189e-03</internalNodes>
          <leafValues>
            1.9554173946380615e-01 -5.5460476875305176e-01</leafValues></_>
        <_>
          <internalNodes>
            0 -1 30 2.7105805277824402e-01</internalNodes>
          <leafValues>
            -2.2981806099414825e-01 4.9377655982971191e-01</leafValues></_>
        <_>
          <internalNodes>
            0 -1 45 2.2306667233351618e-05</internalNodes>
          <leafValues>
            7.0428073406219482e-02 -9.7782492637634277e-01</leafValues></_>
        <_>
          <internalNodes>
            0 -1 23 5.9225835138931870e-04</internalNodes>
          <leafValues>
            1.0216833651065826e-01 -8.8285970687866211e-01</leafValues></_></weakClassifiers></_>
    <!-- stage 6 -->
    <_>
      <maxWeakCount>9</maxWeakCount>
      <stageThreshold>-8.3870184421539307e-01</stageThreshold>
      <weakClassifiers>
        <_>
          <internalNodes>
            0 -1 3 2.5728982873260975e-03</internalNodes>
          <leafValues>
            -6.5591394901275635e-01 2.9468598961830139e-01</leafValues></_>
        <_>
          <internalNodes>
            0 -1 49 7.2634458774700761e-05</internalNodes>
          <leafValues>
            4.9551567435264587e-01 -3.2396358251571655e-01</leafValues></_>
        <_>
          <internalNodes>
            0 -1 14 -5.1582040032371879e-04</internalNodes>
          <leafValues>
            -7.8708535432815552e-01 1.6978588700294495e-01</leafValues></_>
        <_>
          <internalNodes>
            0 -1 0 -2.0856715855188668e-04</internalNodes>
          <leafValues>
            6.8165785074234009e-01 -1.9522351026535034e-01</leafValues></_>
        <_>
          <internalNodes>
            0 -1 60 6.0408644378185272e-02</internalNodes>
          <leafValues>
            -2.9265210032463074e-01 4.6075633168220520e-01</leafValues></_>
        <_>
          <internalNodes>
            0 -1 34 8.9920824393630028e-04</internalNodes>
          <leafValues>
            1.6358448565006256e-01 -7.7264827489852905e-01</leafValues></_>
        <_>
          <internalNodes>
            0 -1 27 8.3883077604696155e-04</internalNodes>
          <leafValues>
            -2.7957800030708313e-01 4.5064315199851990e-01</leafValues></_>
        <_>
          <internalNodes>
            0 -1 48 4.2825322452699766e-05</internalNodes>
          <leafValues>
            -8.6043685674667358e-01 1.3092337548732758e-01</leafValues></_>
        <_>
          <internalNodes>
            0 -1 55 8.4678810089826584e-03</internalNodes>
          <leafValues>
            -2.4624265730381012e-01 4.5060688257217407e-01</leafValues></_></weakClassifiers></_>
    <!-- stage 7 -->
    <_>
      <maxWeakCount>7</maxWeakCount>
      <stageThreshold>-9.4089156389236450e-01</stageThreshold>
      <weakClassifiers>
        <_>
          <internalNodes>
            0 -1 18 -3.0441517010331154e-03</internalNodes>
          <leafValues>
            5.0153845548629761e-01 -5.9272724390029907e-01</leafValues></_>
        <_>
          <internalNodes>
            0 -1 58 -2.0287103950977325e-02</internalNodes>
          <leafValues>
            5.9207844734191895e-01 -4.0035223960876465e-01</leafValues></_>
        <_>
          <internalNodes>
            0 -1 62 6.7372675985097885e-03</internalNodes>
          <leafValues>
            -7.4668931961059570e-01 2.7583602070808411e-01</leafValues></_>
        <_>
          <internalNodes>
            0 -1 12 7.4152665911242366e-04</internalNodes>
          <leafValues>
            -5.1520001888275146e-01 2.6123693585395813e-01</leafValues></_>
        <_>
          <internalNodes>
            0 -1 15 -2.1896073594689369e-03</internalNodes>
          <leafValues>
            -6.3154727220535278e-01 2.0905670523643494e-01</leafValues></_>
        <_>
          <internalNodes>
            0 -1 17 -9.3469386920332909e-03</internalNodes>
          <leafValues>
            -9.7165626287460327e-01 1.3146682083606720e-01</leafValues></_>
        <_>
          <internalNodes>
            0 -1 59 -5.5869244970381260e-03</internalNodes>
          <leafValues>
            -6.5789246559143066e-01 1.9711679220199585e-01</leafValues></_></weakClassifiers></_>
    <!-- stage 8 -->
    <_>
      <maxWeakCount>10</maxWeakCount>
      <stageThreshold>-8.3420145511627197e-01</stageThreshold>
      <weakClassifiers>
        <_>
          <internalNodes>
            0 -1 50 1.4486772008240223e-02</internalNodes>
          <leafValues>
            -3.9393940567970276e-01 6.0337555408477783e-01</leafValues></_>
        <_>
          <internalNodes>
            0 -1 47 3.2492287456989288e-02</internalNodes>
          <leafValues>
            -6.6702991724014282e-01 2.3166295886039734e-01</leafValues></_>
        <_>
          <internalNodes>
            0 -1 26 4.2336760088801384e-04</internalNodes>
          <leafValues>
            -3.2587224245071411e-01 4.2275136709213257e-01</leafValues></_>
        <_>
          <internalNodes>
            0 -1 44 2.3406483232975006e-03</internalNodes>
          <leafValues>
            -7.2025686502456665e-01 2.7074134349822998e-01</leafValues></_>
        <_>
          <internalNodes>
            0 -1 19 -6.2506888061761856e-03</internalNodes>
          <leafValues>
            8.2885825634002686e-01 -2.0104637742042542e-01</leafValues></_>
        <_>
          <internalNodes>
            0 -1 39 1.7710530664771795e-03</internalNodes>
          <leafValues>
            1.2013900279998779e-01 -9.2294090986251831e-01</leafValues></_>
        <_>
          <internalNodes>
            0 -1 64 -2.1074738469906151e-04</internalNodes>
          <leafValues>
            -6.4059853553771973e-01 1.2711833417415619e-01</leafValues></_>
        <_>
          <internalNodes>
            0 -1 38 1.0841551702469587e-03</internalNodes>
          <leafValues>
            1.6975814104080200e-01 -6.2787163257598877e-01</leafValues></_>
        <_>
          <internalNodes>
            0 -1 7 -6.4051651861518621e-05</internalNodes>
          <leafValues>
            -6.4539015293121338e-01 1.5171888470649719e-01</leafValues></_>
        <_>
          <internalNodes>
            0 -1 4 1.2821911368519068e-03</internalNodes>
          <leafValues>
            -6.1008554697036743e-01 1.5658535063266754e-01</leafValues></_></weakClassifiers></_>
    <!-- stage 9 -->
    <_>
      <maxWeakCount>11</maxWeakCount>
      <stageThreshold>-1.0032243728637695e+00</stageThreshold>
      <weakClassifiers>
        <_>
          <internalNodes>
            0 -1 21 3.3938270062208176e-03</internalNodes>
          <leafValues>
            -3.6842104792594910e-01 4.8837208747863770e-01</leafValues></_>
        <_>
          <internalNodes>
            0 -1 1 -2.3644254542887211e-03</internalNodes>
          <leafValues>
            3.0412828922271729e-01 -4.4343110918998718e-01</leafValues></_>
        <_>
          <internalNodes>
            0 -1 42 2.2864466882310808e-04</internalNodes>
          <leafValues>
            -2.9833495616912842e-01 3.9750307798385620e-01</leafValues></_>
        <_>
          <internalNodes>
            0 -1 5 2.3199241608381271e-02</internalNodes>
          <leafValues>
            -2.0789350569248199e-01 6.5593385696411133e-01</leafValues></_>
        <_>
          <internalNodes>
            0 -1 23 -8.3702313713729382e-04</internalNodes>
          <leafValues>
            -7.4327129125595093e-01 2.5309973955154419e-01</leafValues></_>
        <_>
          <internalNodes>
            0 -1 8 7.3034601518884301e-04</internalNodes>
          <leafValues>
            -3.8787919282913208e-01 2.7753317356109619e-01</leafValues></_>
        <_>
          <internalNodes>
            0 -1 37 -7.7225023414939642e-04</internalNodes>
          <leafValues>
            1.9612912833690643e-01 -4.7817400097846985e-01</leafValues></_>
        <_>
          <internalNodes>
            0 -1 20 -6.0319751501083374e-03</internalNodes>
          <leafValues>
            7.0438665151596069e-01 -1.5775941312313080e-01</leafValues></_>
        <_>
          <internalNodes>
            0 -1 6 -9.0491748414933681e-04</internalNodes>
          <leafValues>
            -7.3658311367034912e-01 1.6485197842121124e-01</leafValues></_>
        <_>
          <internalNodes>
            0 -1 36 8.2838471280410886e-04</internalNodes>
          <leafValues>
            -6.1714601516723633e-01 1.6993133723735809e-01</leafValues></_>
        <_>
          <internalNodes>
            0 -1 22 4.6515633584931493e-04</internalNodes>
          <leafValues>
            1.2489135563373566e-01 -6.8885821104049683e-01</leafValues></_></weakClassifiers></_></stages>
  <features>
    <_>
      <rects>
        <_>
          0 0 2 1 -1.</_>
        <_>
          1 0 1 1 2.</_></rects>
      <tilted>0</tilted></_>
    <_>
      <rects>
        <_>
          0 6 18 2 -1.</_>
        <_>
          9 6 9 2 2.</_></rects>
      <tilted>0</tilted></_>
    <_>
      <rects>
        <_>
          0 9 8 12 -1.</_>
        <_>
          0 9 4 6 2.</_>
        <_>
          4 15 4 6 2.</_></rects>
      <tilted>0</tilted></_>
    <_>
      <rects>
        <_>
          1 3 6 17 -1.</_>
        <_>
          3 3 2 17 3.</_></rects>
      <tilted>0</tilted></_>
    <_>
      <rects>
        <_>
          1 3 4 6 -1.</_>
        <_>
          1 5 4 2 3.</_></rects>
      <tilted>0</tilted></_>
    <_>
      <rects>
        <_>
          1 11 13 4 -1.</_>
        <_>
          1 13 13 2 2.</_></rects>
      <tilted>0</tilted></_>
    <_>
      <rects>
        <_>
          1 13 3 3 -1.</_>
        <_>
          1 14 3 1 3.</_></rects>
      <tilted>0</tilted></_>
    <_>
      <rects>
        <_>
          1 13 8 2 -1.</_>
        <_>
          1 13 4 1 2.</_>
        <_>
          5 14 4 1 2.</_></rects>
      <tilted>0</tilted></_>
    <_>
      <rects>
        <_>
          1 17 8 2 -1.</_>
        <_>
          1 17 4 1 2.</_>
        <_>
          5 18 4 1 2.</_></rects>
      <tilted>0</tilted></_>
    <_>
      <rects>
        <_>
          2 0 3 6 -1.</_>
        <_>
          2 3 3 3 2.</_></rects>
      <tilted>0</tilted></_>
    <_>
      <rects>
        <_>
          2 0 10 8 -1.</_>
        <_>
          2 0 5 4 2.</_>
        <_>
          7 4 5 4 2.</_></rects>
      <tilted>0</tilted></_>
    <_>
      <rects>
        <_>
          2 5 3 3 -1.</_>
        <_>
          2 6 3 1 3.</_></rects>
      <tilted>0</tilted></_>
    <_>
      <rects>
        <_>
          2 6 3 15 -1.</_>
        <_>
          3 6 1 15 3.</_></rects>
      <tilted>0</tilted></_>
    <_>
      <rects>
        <_>
          2 13 2 3 -1.</_>
        <_>
          2 14 2 1 3.</_></rects>
      <tilted>0</tilted></_>
    <_>
      <rects>
        <_>
          3 6 2 3 -1.</_>
        <_>
          3 7 2 1 3.</_></rects>
      <tilted>0</tilted></_>
    <_>
      <rects>
        <_>
          3 7 7 3 -1.</_>
        <_>
          3 8 7 1 3.</_></rects>
      <tilted>0</tilted></_>
    <_>
      <rects>
        <_>
          3 8 12 2 -1.</_>
        <_>
          3 8 6 1 2.</_>
        <_>
          9 9 6 1 2.</_></rects>
      <tilted>0</tilted></_>
    <_>
      <rects>
        <_>
          4 0 10 18 -1.</_>
        <_>
          9 0 5 18 2.</_></rects>
      <tilted>0</tilted></_>
    <_>
      <rects>
        <_>
          4 9 4 2 -1.</_>
        <_>
          6 9 2 2 2.</_></rects>
      <tilted>0</tilted></_>
    <_>
      <rects>
        <_>
          5 0 11 3 -1.</_>
        <_>
          5 1 11 1 3.</_></rects>
      <tilted>0</tilted></_>
    <_>
      <rects>
        <_>
          5 0 12 3 -1.</_>
        <_>
          5 1 12 1 3.</_></rects>
      <tilted>0</tilted></_>
    <_>
      <rects>
        <_>
          5 1 1 8 -1.</_>
        <_>
          5 5 1 4 2.</_></rects>
      <tilted>0</tilted></_>
    <_>
      <rects>
        <_>
          5 7 2 2 -1.</_>
        <_>
          5 7 1 1 2.</_>
        <_>
          6 8 1 1 2.</_></rects>
      <tilted>0</tilted></_>
    <_>
      <rects>
        <_>
          5 8 1 3 -1.</_>
        <_>
          5 9 1 1 3.</_></rects>
      <tilted>0</tilted></_>
    <_>
      <rects>
        <_>
          5 8 6 4 -1.</_>
        <_>
          7 8 2 4 3.</_></rects>
      <tilted>0</tilted></_>
    <_>
      <rects>
        <_>
          5 9 4 14 -1.</_>
        <_>
          5 16 4 7 2.</_></rects>
      <tilted>0</tilted></_>
    <_>
      <rects>
        <_>
          5 21 4 3 -1.</_>
        <_>
          5 22 4 1 3.</_></rects>
      <tilted>0</tilted></_>
    <_>
      <rects>
        <_>
          6 21 7 3 -1.</_>
        <_>
          6 22 7 1 3.</_></rects>
      <tilted>0</tilted></_>
    <_>
      <rects>
        <_>
          7 8 11 14 -1.</_>
        <_>
          7 15 11 7 2.</_></rects>
      <tilted>0</tilted></_>
    <_>
      <rects>
        <_>
          7 21 12 3 -1.</_>
        <_>
          7 22 12 1 3.</_></rects>
      <tilted>0</tilted></_>
    <_>
      <rects>
        <_>
          8 6 13 16 -1.</_>
        <_>
          8 14 13 8 2.</_></rects>
      <tilted>0</tilted></_>
    <_>
      <rects>
        <_>
          8 7 4 6 -1.</_>
        <_>
          10 7 2 6 2.</_></rects>
      <tilted>0</tilted></_>
    <_>
      <rects>
        <_>
          8 8 9 11 -1.</_>
        <_>
          11 8 3 11 3.</_></rects>
      <tilted>0</tilted></_>
    <_>
      <rects>
        <_>
          9 0 6 15 -1.</_>
        <_>
          11 0 2 15 3.</_></rects>
      <tilted>0</tilted></_>
    <_>
      <rects>
        <_>
          9 7 3 3 -1.</_>
        <_>
          9 8 3 1 3.</_></rects>
      <tilted>0</tilted></_>
    <_>
      <rects>
        <_>
          9 11 6 2 -1.</_>
        <_>
          9 12 6 1 2.</_></rects>
      <tilted>0</tilted></_>
    <_>
      <rects>
        <_>
          10 0 3 10 -1.</_>
        <_>
          11 0 1 10 3.</_></rects>
      <tilted>0</tilted></_>
    <_>
      <rects>
        <_>
          10 3 1 9 -1.</_>
        <_>
          10 6 1 3 3.</_></rects>
      <tilted>0</tilted></_>
    <_>
      <rects>
        <_>
          10 6 5 3 -1.</_>
        <_>
          10 7 5 1 3.</_></rects>
      <tilted>0</tilted></_>
    <_>
      <rects>
        <_>
          10 8 1 6 -1.</_>
        <_>
          10 10 1 2 3.</_></rects>
      <tilted>0</tilted></_>
    <_>
      <rects>
        <_>
          10 10 6 4 -1.</_>
        <_>
          10 12 6 2 2.</_></rects>
      <tilted>0</tilted></_>
    <_>
      <rects>
        <_>
          10 20 1 2 -1.</_>
        <_>
          10 21 1 1 2.</_></rects>
      <tilted>0</tilted></_>
    <_>
      <rects>
        <_>
          10 21 2 3 -1.</_>
        <_>
          10 22 2 1 3.</_></rects>
      <tilted>0</tilted></_>
    <_>
      <rects>
        <_>
          10 21 3 3 -1.</_>
        <_>
          10 22 3 1 3.</_></rects>
      <tilted>0</tilted></_>
    <_>
      <rects>
        <_>
          11 0 3 18 -1.</_>
        <_>
          12 0 1 18 3.</_></rects>
      <tilted>0</tilted></_>
    <_>
      <rects>
        <_>
          11 0 12 1 -1.</_>
        <_>
          17 0 6 1 2.</_></rects>
      <tilted>0</tilted></_>
    <_>
      <rects>
        <_>
          11 22 2 2 -1.</_>
        <_>
          11 23 2 1 2.</_></rects>
      <tilted>0</tilted></_>
    <_>
      <rects>
        <_>
          12 6 3 16 -1.</_>
        <_>
          12 14 3 8 2.</_></rects>
      <tilted>0</tilted></_>
    <_>
      <rects>
        <_>
          12 13 1 2 -1.</_>
        <_>
          12 14 1 1 2.</_></rects>
      <tilted>0</tilted></_>
    <_>
      <rects>
        <_>
          12 22 4 2 -1.</_>
        <_>
          12 23 4 1 2.</_></rects>
      <tilted>0</tilted></_>
    <_>
      <rects>
        <_>
          13 0 6 8 -1.</_>
        <_>
          13 0 3 4 2.</_>
        <_>
          16 4 3 4 2.</_></rects>
      <tilted>0</tilted></_>
    <_>
      <rects>
        <_>
          13 6 6 18 -1.</_>
        <_>
          13 15 6 9 2.</_></rects>
      <tilted>0</tilted></_>
    <_>
      <rects>
        <_>
          13 15 1 3 -1.</_>
        <_>
          13 16 1 1 3.</_></rects>
      <tilted>0</tilted></_>
    <_>
      <rects>
        <_>
          14 3 3 7 -1.</_>
        <_>
          15 3 1 7 3.</_></rects>
      <tilted>0</tilted></_>
    <_>
      <rects>
        <_>
          14 11 2 1 -1.</_>
        <_>
          15 11 1 1 2.</_></rects>
      <tilted>0</tilted></_>
    <_>
      <rects>
        <_>
          14 14 9 6 -1.</_>
        <_>
          17 14 3 6 3.</_></rects>
      <tilted>0</tilted></_>
    <_>
      <rects>
        <_>
          14 22 1 2 -1.</_>
        <_>
          14 23 1 1 2.</_></rects>
      <tilted>0</tilted></_>
    <_>
      <rects>
        <_>
          15 1 9 6 -1.</_>
        <_>
          15 4 9 3 2.</_></rects>
      <tilted>0</tilted></_>
    <_>
      <rects>
        <_>
          15 6 6 10 -1.</_>
        <_>
          15 6 3 5 2.</_>
        <_>
          18 11 3 5 2.</_></rects>
      <tilted>0</tilted></_>
    <_>
      <rects>
        <_>
          15 15 9 7 -1.</_>
        <_>
          18 15 3 7 3.</_></rects>
      <tilted>0</tilted></_>
    <_>
      <rects>
        <_>
          16 5 2 18 -1.</_>
        <_>
          16 14 2 9 2.</_></rects>
      <tilted>0</tilted></_>
    <_>
      <rects>
        <_>
          16 5 8 18 -1.</_>
        <_>
          16 5 4 9 2.</_>
        <_>
          20 14 4 9 2.</_></rects>
      <tilted>0</tilted></_>
    <_>
      <rects>
        <_>
          20 0 3 8 -1.</_>
        <_>
          20 4 3 4 2.</_></rects>
      <tilted>0</tilted></_>
    <_>
      <rects>
        <_>
          20 19 2 5 -1.</_>
        <_>
          21 19 1 5 2.</_></rects>
      <tilted>0</tilted></_>
    <_>
      <rects>
        <_>
          23 8 1 3 -1.</_>
        <_>
          23 9 1 1 3.</_></rects>
      <tilted>0</tilted></_></features></cascade>
</opencv_storage>
