<?xml version="1.0"?>
<opencv_storage>
<stage8>
  <maxWeakCount>10</maxWeakCount>
  <stageThreshold>-8.3420145511627197e-01</stageThreshold>
  <weakClassifiers>
    <_>
      <internalNodes>
        0 -1 128219 1.4486772008240223e-02</internalNodes>
      <leafValues>
        -3.9393940567970276e-01 6.0337555408477783e-01</leafValues></_>
    <_>
      <internalNodes>
        0 -1 124415 3.2492287456989288e-02</internalNodes>
      <leafValues>
        -6.6702991724014282e-01 2.3166295886039734e-01</leafValues></_>
    <_>
      <internalNodes>
        0 -1 70581 4.2336760088801384e-04</internalNodes>
      <leafValues>
        -3.2587224245071411e-01 4.2275136709213257e-01</leafValues></_>
    <_>
      <internalNodes>
        0 -1 114479 2.3406483232975006e-03</internalNodes>
      <leafValues>
        -7.2025686502456665e-01 2.7074134349822998e-01</leafValues></_>
    <_>
      <internalNodes>
        0 -1 61105 -6.2506888061761856e-03</internalNodes>
      <leafValues>
        8.2885825634002686e-01 -2.0104637742042542e-01</leafValues></_>
    <_>
      <internalNodes>
        0 -1 111020 1.7710530664771795e-03</internalNodes>
      <leafValues>
        1.2013900279998779e-01 -9.2294090986251831e-01</leafValues></_>
    <_>
      <internalNodes>
        0 -1 162233 -2.1074738469906151e-04</internalNodes>
      <leafValues>
        -6.4059853553771973e-01 1.2711833417415619e-01</leafValues></_>
    <_>
      <internalNodes>
        0 -1 110358 1.0841551702469587e-03</internalNodes>
      <leafValues>
        1.6975814104080200e-01 -6.2787163257598877e-01</leafValues></_>
    <_>
      <internalNodes>
        0 -1 23291 -6.4051651861518621e-05</internalNodes>
      <leafValues>
        -6.4539015293121338e-01 1.5171888470649719e-01</leafValues></_>
    <_>
      <internalNodes>
        0 -1 16511 1.2821911368519068e-03</internalNodes>
      <leafValues>
        -6.1008554697036743e-01 1.5658535063266754e-01</leafValues></_></weakClassifiers></stage8>
</opencv_storage>
