<?xml version="1.0"?>
<opencv_storage>
<stage9>
  <maxWeakCount>11</maxWeakCount>
  <stageThreshold>-1.0032243728637695e+00</stageThreshold>
  <weakClassifiers>
    <_>
      <internalNodes>
        0 -1 61300 3.3938270062208176e-03</internalNodes>
      <leafValues>
        -3.6842104792594910e-01 4.8837208747863770e-01</leafValues></_>
    <_>
      <internalNodes>
        0 -1 6316 -2.3644254542887211e-03</internalNodes>
      <leafValues>
        3.0412828922271729e-01 -4.4343110918998718e-01</leafValues></_>
    <_>
      <internalNodes>
        0 -1 114302 2.2864466882310808e-04</internalNodes>
      <leafValues>
        -2.9833495616912842e-01 3.9750307798385620e-01</leafValues></_>
    <_>
      <internalNodes>
        0 -1 22562 2.3199241608381271e-02</internalNodes>
      <leafValues>
        -2.0789350569248199e-01 6.5593385696411133e-01</leafValues></_>
    <_>
      <internalNodes>
        0 -1 66127 -8.3702313713729382e-04</internalNodes>
      <leafValues>
        -7.4327129125595093e-01 2.5309973955154419e-01</leafValues></_>
    <_>
      <internalNodes>
        0 -1 24801 7.3034601518884301e-04</internalNodes>
      <leafValues>
        -3.8787919282913208e-01 2.7753317356109619e-01</leafValues></_>
    <_>
      <internalNodes>
        0 -1 108594 -7.7225023414939642e-04</internalNodes>
      <leafValues>
        1.9612912833690643e-01 -4.7817400097846985e-01</leafValues></_>
    <_>
      <internalNodes>
        0 -1 61125 -6.0319751501083374e-03</internalNodes>
      <leafValues>
        7.0438665151596069e-01 -1.5775941312313080e-01</leafValues></_>
    <_>
      <internalNodes>
        0 -1 23255 -9.0491748414933681e-04</internalNodes>
      <leafValues>
        -7.3658311367034912e-01 1.6485197842121124e-01</leafValues></_>
    <_>
      <internalNodes>
        0 -1 106846 8.2838471280410886e-04</internalNodes>
      <leafValues>
        -6.1714601516723633e-01 1.6993133723735809e-01</leafValues></_>
    <_>
      <internalNodes>
        0 -1 65554 4.6515633584931493e-04</internalNodes>
      <leafValues>
        1.2489135563373566e-01 -6.8885821104049683e-01</leafValues></_></weakClassifiers></stage9>
</opencv_storage>
