<?xml version="1.0"?>
<opencv_storage>
<cascade>
  <stageType>BOOST</stageType>
  <featureType>HAAR</featureType>
  <height>24</height>
  <width>24</width>
  <stageParams>
    <boostType>GAB</boostType>
    <minHitRate>9.9500000476837158e-01</minHitRate>
    <maxFalseAlarm>5.0000000000000000e-01</maxFalseAlarm>
    <weightTrimRate>9.4999999999999996e-01</weightTrimRate>
    <maxDepth>1</maxDepth>
    <maxWeakCount>100</maxWeakCount></stageParams>
  <featureParams>
    <maxCatCount>0</maxCatCount>
    <featSize>1</featSize>
    <mode>BASIC</mode></featureParams>
  <stageNum>10</stageNum>
  <stages>
    <!-- stage 0 -->
    <_>
      <maxWeakCount>3</maxWeakCount>
      <stageThreshold>-1.0945338010787964e+00</stageThreshold>
      <weakClassifiers>
        <_>
          <internalNodes>
            0 -1 38 5.8742672204971313e-02</internalNodes>
          <leafValues>
            -7.9522186517715454e-01 7.5895768404006958e-01</leafValues></_>
        <_>
          <internalNodes>
            0 -1 40 7.3767542839050293e-02</internalNodes>
          <leafValues>
            -8.6215198040008545e-01 6.6238707304000854e-01</leafValues></_>
        <_>
          <internalNodes>
            0 -1 44 2.1696049720048904e-02</internalNodes>
          <leafValues>
            -6.1135995388031006e-01 5.6283998489379883e-01</leafValues></_></weakClassifiers></_>
    <!-- stage 1 -->
    <_>
      <maxWeakCount>4</maxWeakCount>
      <stageThreshold>-1.4027769565582275e+00</stageThreshold>
      <weakClassifiers>
        <_>
          <internalNodes>
            0 -1 33 3.0800785869359970e-02</internalNodes>
          <leafValues>
            -7.7397263050079346e-01 7.3376625776290894e-01</leafValues></_>
        <_>
          <internalNodes>
            0 -1 15 5.8334609493613243e-03</internalNodes>
          <leafValues>
            -8.3792972564697266e-01 5.6210523843765259e-01</leafValues></_>
        <_>
          <internalNodes>
            0 -1 10 2.3790404200553894e-02</internalNodes>
          <leafValues>
            -8.3943694829940796e-01 3.3130297064781189e-01</leafValues></_>
        <_>
          <internalNodes>
            0 -1 18 2.0193656906485558e-02</internalNodes>
          <leafValues>
            -3.5147264599800110e-01 8.4790623188018799e-01</leafValues></_></weakClassifiers></_>
    <!-- stage 2 -->
    <_>
      <maxWeakCount>6</maxWeakCount>
      <stageThreshold>-9.5247393846511841e-01</stageThreshold>
      <weakClassifiers>
        <_>
          <internalNodes>
            0 -1 11 3.4883536398410797e-02</internalNodes>
          <leafValues>
            -8.1673306226730347e-01 5.8739256858825684e-01</leafValues></_>
        <_>
          <internalNodes>
            0 -1 74 -5.1210582256317139e-02</internalNodes>
          <leafValues>
            5.2492994070053101e-01 -6.3942277431488037e-01</leafValues></_>
        <_>
          <internalNodes>
            0 -1 35 9.9354214034974575e-04</internalNodes>
          <leafValues>
            -3.5005226731300354e-01 5.8700138330459595e-01</leafValues></_>
        <_>
          <internalNodes>
            0 -1 31 -6.8800785811617970e-05</internalNodes>
          <leafValues>
            -7.4145925045013428e-01 2.8543412685394287e-01</leafValues></_>
        <_>
          <internalNodes>
            0 -1 57 3.1162351369857788e-02</internalNodes>
          <leafValues>
            2.3261377215385437e-01 -7.4765509366989136e-01</leafValues></_>
        <_>
          <internalNodes>
            0 -1 26 2.7520924806594849e-02</internalNodes>
          <leafValues>
            -6.0136741399765015e-01 3.5508707165718079e-01</leafValues></_></weakClassifiers></_>
    <!-- stage 3 -->
    <_>
      <maxWeakCount>8</maxWeakCount>
      <stageThreshold>-1.1211500167846680e+00</stageThreshold>
      <weakClassifiers>
        <_>
          <internalNodes>
            0 -1 8 -1.9036989659070969e-02</internalNodes>
          <leafValues>
            3.6523929238319397e-01 -7.1428573131561279e-01</leafValues></_>
        <_>
          <internalNodes>
            0 -1 45 3.8471734151244164e-03</internalNodes>
          <leafValues>
            -7.3959982395172119e-01 2.0561689138412476e-01</leafValues></_>
        <_>
          <internalNodes>
            0 -1 50 1.1459207162261009e-03</internalNodes>
          <leafValues>
            -3.0048650503158569e-01 4.2328751087188721e-01</leafValues></_>
        <_>
          <internalNodes>
            0 -1 3 2.7933044359087944e-02</internalNodes>
          <leafValues>
            -3.6775392293930054e-01 4.3779104948043823e-01</leafValues></_>
        <_>
          <internalNodes>
            0 -1 68 5.2835419774055481e-04</internalNodes>
          <leafValues>
            -6.5528982877731323e-01 1.8783606588840485e-01</leafValues></_>
        <_>
          <internalNodes>
            0 -1 9 -5.1656051073223352e-04</internalNodes>
          <leafValues>
            -6.7518258094787598e-01 1.6046065092086792e-01</leafValues></_>
        <_>
          <internalNodes>
            0 -1 58 5.3281970322132111e-03</internalNodes>
          <leafValues>
            -4.5165869593620300e-01 2.5012597441673279e-01</leafValues></_>
        <_>
          <internalNodes>
            0 -1 28 4.0226064622402191e-02</internalNodes>
          <leafValues>
            -3.3427375555038452e-01 3.8056385517120361e-01</leafValues></_></weakClassifiers></_>
    <!-- stage 4 -->
    <_>
      <maxWeakCount>10</maxWeakCount>
      <stageThreshold>-9.4765114784240723e-01</stageThreshold>
      <weakClassifiers>
        <_>
          <internalNodes>
            0 -1 82 3.2615615054965019e-03</internalNodes>
          <leafValues>
            -5.8252429962158203e-01 3.0456852912902832e-01</leafValues></_>
        <_>
          <internalNodes>
            0 -1 79 3.3679469488561153e-03</internalNodes>
          <leafValues>
            -2.7611255645751953e-01 4.3221101164817810e-01</leafValues></_>
        <_>
          <internalNodes>
            0 -1 75 3.2467465847730637e-02</internalNodes>
          <leafValues>
            -7.4143099784851074e-01 1.6251350939273834e-01</leafValues></_>
        <_>
          <internalNodes>
            0 -1 48 4.5618540025316179e-04</internalNodes>
          <leafValues>
            -2.8356179594993591e-01 4.3580624461174011e-01</leafValues></_>
        <_>
          <internalNodes>
            0 -1 30 1.3856105506420135e-03</internalNodes>
          <leafValues>
            -4.5431900024414062e-01 2.1469944715499878e-01</leafValues></_>
        <_>
          <internalNodes>
            0 -1 42 -3.8158975075930357e-04</internalNodes>
          <leafValues>
            -8.6071747541427612e-01 1.5956334769725800e-01</leafValues></_>
        <_>
          <internalNodes>
            0 -1 76 1.2550100218504667e-03</internalNodes>
          <leafValues>
            1.4126721024513245e-01 -6.1160182952880859e-01</leafValues></_>
        <_>
          <internalNodes>
            0 -1 17 1.1916622519493103e-02</internalNodes>
          <leafValues>
            -2.7585512399673462e-01 4.0384158492088318e-01</leafValues></_>
        <_>
          <internalNodes>
            0 -1 23 9.2783840955235064e-05</internalNodes>
          <leafValues>
            -4.8763233423233032e-01 2.5801572203636169e-01</leafValues></_>
        <_>
          <internalNodes>
            0 -1 52 -2.8856892138719559e-02</internalNodes>
          <leafValues>
            2.4649353325366974e-01 -4.8711645603179932e-01</leafValues></_></weakClassifiers></_>
    <!-- stage 5 -->
    <_>
      <maxWeakCount>14</maxWeakCount>
      <stageThreshold>-1.0922284126281738e+00</stageThreshold>
      <weakClassifiers>
        <_>
          <internalNodes>
            0 -1 20 1.2273592874407768e-02</internalNodes>
          <leafValues>
            -2.8912466764450073e-01 4.8878923058509827e-01</leafValues></_>
        <_>
          <internalNodes>
            0 -1 61 2.7091545052826405e-03</internalNodes>
          <leafValues>
            1.6769437491893768e-01 -6.3837420940399170e-01</leafValues></_>
        <_>
          <internalNodes>
            0 -1 12 3.1687684822827578e-03</internalNodes>
          <leafValues>
            -4.3875983357429504e-01 2.0149435102939606e-01</leafValues></_>
        <_>
          <internalNodes>
            0 -1 55 9.8895351402461529e-04</internalNodes>
          <leafValues>
            -2.0671489834785461e-01 5.0413507223129272e-01</leafValues></_>
        <_>
          <internalNodes>
            0 -1 34 2.4245701206382364e-04</internalNodes>
          <leafValues>
            -7.9736602306365967e-01 1.1729304492473602e-01</leafValues></_>
        <_>
          <internalNodes>
            0 -1 77 -3.9994597434997559e-02</internalNodes>
          <leafValues>
            3.8096317648887634e-01 -2.8115245699882507e-01</leafValues></_>
        <_>
          <internalNodes>
            0 -1 25 -3.6013275384902954e-03</internalNodes>
          <leafValues>
            -7.2846812009811401e-01 1.9112192094326019e-01</leafValues></_>
        <_>
          <internalNodes>
            0 -1 67 1.2531173415482044e-03</internalNodes>
          <leafValues>
            1.0841500759124756e-01 -7.6962137222290039e-01</leafValues></_>
        <_>
          <internalNodes>
            0 -1 43 1.5840987907722592e-04</internalNodes>
          <leafValues>
            1.9900377094745636e-01 -4.4326910376548767e-01</leafValues></_>
        <_>
          <internalNodes>
            0 -1 24 -3.8225110620260239e-04</internalNodes>
          <leafValues>
            -6.7801815271377563e-01 1.0252758860588074e-01</leafValues></_>
        <_>
          <internalNodes>
            0 -1 87 3.4195760963484645e-04</internalNodes>
          <leafValues>
            1.4397937059402466e-01 -5.6226438283920288e-01</leafValues></_>
        <_>
          <internalNodes>
            0 -1 73 -9.7338750492781401e-05</internalNodes>
          <leafValues>
            -5.5991894006729126e-01 1.4397658407688141e-01</leafValues></_>
        <_>
          <internalNodes>
            0 -1 78 -3.4514074213802814e-03</internalNodes>
          <leafValues>
            2.8256243467330933e-01 -3.2431557774543762e-01</leafValues></_>
        <_>
          <internalNodes>
            0 -1 71 7.3667243123054504e-02</internalNodes>
          <leafValues>
            1.4353737235069275e-01 -7.1090793609619141e-01</leafValues></_></weakClassifiers></_>
    <!-- stage 6 -->
    <_>
      <maxWeakCount>13</maxWeakCount>
      <stageThreshold>-9.1277426481246948e-01</stageThreshold>
      <weakClassifiers>
        <_>
          <internalNodes>
            0 -1 53 1.3967009261250496e-02</internalNodes>
          <leafValues>
            -4.9612402915954590e-01 3.7426900863647461e-01</leafValues></_>
        <_>
          <internalNodes>
            0 -1 32 8.3844421897083521e-04</internalNodes>
          <leafValues>
            -2.7443525195121765e-01 4.4905972480773926e-01</leafValues></_>
        <_>
          <internalNodes>
            0 -1 14 1.1264787055552006e-02</internalNodes>
          <leafValues>
            -2.2807797789573669e-01 5.3534781932830811e-01</leafValues></_>
        <_>
          <internalNodes>
            0 -1 83 8.0552534200251102e-04</internalNodes>
          <leafValues>
            1.7255628108978271e-01 -6.4468210935592651e-01</leafValues></_>
        <_>
          <internalNodes>
            0 -1 54 2.7865875745192170e-04</internalNodes>
          <leafValues>
            -5.4199975728988647e-01 1.9833692908287048e-01</leafValues></_>
        <_>
          <internalNodes>
            0 -1 80 7.7294423244893551e-03</internalNodes>
          <leafValues>
            -2.8268349170684814e-01 4.2967051267623901e-01</leafValues></_>
        <_>
          <internalNodes>
            0 -1 89 8.4099365631118417e-04</internalNodes>
          <leafValues>
            -3.0732944607734680e-01 3.4990996122360229e-01</leafValues></_>
        <_>
          <internalNodes>
            0 -1 6 -2.7273979503661394e-04</internalNodes>
          <leafValues>
            3.6841973662376404e-01 -2.7379506826400757e-01</leafValues></_>
        <_>
          <internalNodes>
            0 -1 41 2.9794129077345133e-03</internalNodes>
          <leafValues>
            1.6312207281589508e-01 -6.9774746894836426e-01</leafValues></_>
        <_>
          <internalNodes>
            0 -1 88 -3.3096934203058481e-04</internalNodes>
          <leafValues>
            -6.7921316623687744e-01 9.1081164777278900e-02</leafValues></_>
        <_>
          <internalNodes>
            0 -1 5 -2.8381459414958954e-03</internalNodes>
          <leafValues>
            7.2794866561889648e-01 -1.4523258805274963e-01</leafValues></_>
        <_>
          <internalNodes>
            0 -1 64 1.0495789319975302e-04</internalNodes>
          <leafValues>
            4.3126049637794495e-01 -2.8947573900222778e-01</leafValues></_>
        <_>
          <internalNodes>
            0 -1 27 -6.9792855356354266e-05</internalNodes>
          <leafValues>
            -8.7009942531585693e-01 1.3229009509086609e-01</leafValues></_></weakClassifiers></_>
    <!-- stage 7 -->
    <_>
      <maxWeakCount>9</maxWeakCount>
      <stageThreshold>-8.6616718769073486e-01</stageThreshold>
      <weakClassifiers>
        <_>
          <internalNodes>
            0 -1 46 1.9783480092883110e-02</internalNodes>
          <leafValues>
            -5.4574131965637207e-01 6.1130744218826294e-01</leafValues></_>
        <_>
          <internalNodes>
            0 -1 2 6.7298328503966331e-03</internalNodes>
          <leafValues>
            -5.3311419486999512e-01 4.4774547219276428e-01</leafValues></_>
        <_>
          <internalNodes>
            0 -1 72 1.4359607361257076e-02</internalNodes>
          <leafValues>
            -2.8262466192245483e-01 6.1842358112335205e-01</leafValues></_>
        <_>
          <internalNodes>
            0 -1 51 3.4655185299925506e-04</internalNodes>
          <leafValues>
            2.3900163173675537e-01 -7.0926225185394287e-01</leafValues></_>
        <_>
          <internalNodes>
            0 -1 1 2.7144204825162888e-02</internalNodes>
          <leafValues>
            -5.9336388111114502e-01 3.1693980097770691e-01</leafValues></_>
        <_>
          <internalNodes>
            0 -1 70 -1.9280880223959684e-03</internalNodes>
          <leafValues>
            -8.1565326452255249e-01 1.2228845804929733e-01</leafValues></_>
        <_>
          <internalNodes>
            0 -1 84 6.0061842668801546e-04</internalNodes>
          <leafValues>
            2.0067627727985382e-01 -6.8619984388351440e-01</leafValues></_>
        <_>
          <internalNodes>
            0 -1 85 7.8099791426211596e-04</internalNodes>
          <leafValues>
            2.0503053069114685e-01 -7.4163514375686646e-01</leafValues></_>
        <_>
          <internalNodes>
            0 -1 4 1.6298364847898483e-02</internalNodes>
          <leafValues>
            -4.6545878052711487e-01 3.5964015126228333e-01</leafValues></_></weakClassifiers></_>
    <!-- stage 8 -->
    <_>
      <maxWeakCount>12</maxWeakCount>
      <stageThreshold>-9.4678562879562378e-01</stageThreshold>
      <weakClassifiers>
        <_>
          <internalNodes>
            0 -1 65 1.1788372881710529e-02</internalNodes>
          <leafValues>
            -4.9333333969116211e-01 4.9333333969116211e-01</leafValues></_>
        <_>
          <internalNodes>
            0 -1 7 -1.6016511246562004e-02</internalNodes>
          <leafValues>
            -5.4729753732681274e-01 1.8284726142883301e-01</leafValues></_>
        <_>
          <internalNodes>
            0 -1 56 -7.5027509592473507e-03</internalNodes>
          <leafValues>
            1.5629714727401733e-01 -6.3680022954940796e-01</leafValues></_>
        <_>
          <internalNodes>
            0 -1 92 3.0363768019014969e-05</internalNodes>
          <leafValues>
            2.2032177448272705e-01 -4.2856636643409729e-01</leafValues></_>
        <_>
          <internalNodes>
            0 -1 62 1.4289471437223256e-04</internalNodes>
          <leafValues>
            -5.8804708719253540e-01 2.0582619309425354e-01</leafValues></_>
        <_>
          <internalNodes>
            0 -1 21 5.1614211406558752e-04</internalNodes>
          <leafValues>
            1.2677581608295441e-01 -6.5008366107940674e-01</leafValues></_>
        <_>
          <internalNodes>
            0 -1 63 4.2106003093067557e-05</internalNodes>
          <leafValues>
            3.4425228834152222e-01 -2.9845401644706726e-01</leafValues></_>
        <_>
          <internalNodes>
            0 -1 59 1.5368509048130363e-04</internalNodes>
          <leafValues>
            1.2194444239139557e-01 -6.5800505876541138e-01</leafValues></_>
        <_>
          <internalNodes>
            0 -1 86 -4.2092974763363600e-04</internalNodes>
          <leafValues>
            -4.4926542043685913e-01 2.3866499960422516e-01</leafValues></_>
        <_>
          <internalNodes>
            0 -1 66 5.0081666558980942e-03</internalNodes>
          <leafValues>
            1.2886796891689301e-01 -9.2581909894943237e-01</leafValues></_>
        <_>
          <internalNodes>
            0 -1 60 4.6896125422790647e-04</internalNodes>
          <leafValues>
            1.0257263481616974e-01 -8.0362689495086670e-01</leafValues></_>
        <_>
          <internalNodes>
            0 -1 90 -1.0976328514516354e-02</internalNodes>
          <leafValues>
            7.7452272176742554e-01 -1.5731284022331238e-01</leafValues></_></weakClassifiers></_>
    <!-- stage 9 -->
    <_>
      <maxWeakCount>14</maxWeakCount>
      <stageThreshold>-1.0085840225219727e+00</stageThreshold>
      <weakClassifiers>
        <_>
          <internalNodes>
            0 -1 16 -2.4745009839534760e-02</internalNodes>
          <leafValues>
            5.7541900873184204e-01 -2.4465557932853699e-01</leafValues></_>
        <_>
          <internalNodes>
            0 -1 0 -2.8913118512718938e-05</internalNodes>
          <leafValues>
            -4.4563758373260498e-01 2.1582011878490448e-01</leafValues></_>
        <_>
          <internalNodes>
            0 -1 91 9.2521717306226492e-04</internalNodes>
          <leafValues>
            1.0331135988235474e-01 -7.6137220859527588e-01</leafValues></_>
        <_>
          <internalNodes>
            0 -1 69 -1.5020449063740671e-04</internalNodes>
          <leafValues>
            -6.8587499856948853e-01 1.1463577300310135e-01</leafValues></_>
        <_>
          <internalNodes>
            0 -1 39 7.6434509828686714e-03</internalNodes>
          <leafValues>
            1.7986102402210236e-01 -5.3868067264556885e-01</leafValues></_>
        <_>
          <internalNodes>
            0 -1 29 -2.2219924721866846e-03</internalNodes>
          <leafValues>
            1.9918136298656464e-01 -4.5745250582695007e-01</leafValues></_>
        <_>
          <internalNodes>
            0 -1 22 -1.0844102362170815e-03</internalNodes>
          <leafValues>
            -5.1136076450347900e-01 1.8056587874889374e-01</leafValues></_>
        <_>
          <internalNodes>
            0 -1 19 1.5761160757392645e-03</internalNodes>
          <leafValues>
            9.0014211833477020e-02 -6.5947258472442627e-01</leafValues></_>
        <_>
          <internalNodes>
            0 -1 49 1.3050246052443981e-03</internalNodes>
          <leafValues>
            -2.0256690680980682e-01 4.5202881097793579e-01</leafValues></_>
        <_>
          <internalNodes>
            0 -1 37 4.3909931555390358e-03</internalNodes>
          <leafValues>
            -2.7829313278198242e-01 3.4988644719123840e-01</leafValues></_>
        <_>
          <internalNodes>
            0 -1 13 4.6022839844226837e-02</internalNodes>
          <leafValues>
            -2.1836997568607330e-01 5.2175533771514893e-01</leafValues></_>
        <_>
          <internalNodes>
            0 -1 47 1.5502911992371082e-03</internalNodes>
          <leafValues>
            9.9873647093772888e-02 -9.4565534591674805e-01</leafValues></_>
        <_>
          <internalNodes>
            0 -1 81 -3.5308889346197248e-04</internalNodes>
          <leafValues>
            -7.1878278255462646e-01 1.0402703285217285e-01</leafValues></_>
        <_>
          <internalNodes>
            0 -1 36 2.4291784502565861e-03</internalNodes>
          <leafValues>
            9.1757632791996002e-02 -8.1706458330154419e-01</leafValues></_></weakClassifiers></_></stages>
  <features>
    <_>
      <rects>
        <_>
          0 0 4 2 -1.</_>
        <_>
          0 0 2 1 2.</_>
        <_>
          2 1 2 1 2.</_></rects>
      <tilted>0</tilted></_>
    <_>
      <rects>
        <_>
          0 0 4 15 -1.</_>
        <_>
          0 5 4 5 3.</_></rects>
      <tilted>0</tilted></_>
    <_>
      <rects>
        <_>
          0 2 9 10 -1.</_>
        <_>
          3 2 3 10 3.</_></rects>
      <tilted>0</tilted></_>
    <_>
      <rects>
        <_>
          0 16 15 4 -1.</_>
        <_>
          5 16 5 4 3.</_></rects>
      <tilted>0</tilted></_>
    <_>
      <rects>
        <_>
          0 21 12 3 -1.</_>
        <_>
          4 21 4 3 3.</_></rects>
      <tilted>0</tilted></_>
    <_>
      <rects>
        <_>
          0 21 15 3 -1.</_>
        <_>
          0 22 15 1 3.</_></rects>
      <tilted>0</tilted></_>
    <_>
      <rects>
        <_>
          0 22 10 2 -1.</_>
        <_>
          0 22 5 1 2.</_>
        <_>
          5 23 5 1 2.</_></rects>
      <tilted>0</tilted></_>
    <_>
      <rects>
        <_>
          1 0 12 13 -1.</_>
        <_>
          7 0 6 13 2.</_></rects>
      <tilted>0</tilted></_>
    <_>
      <rects>
        <_>
          1 0 14 6 -1.</_>
        <_>
          1 0 7 3 2.</_>
        <_>
          8 3 7 3 2.</_></rects>
      <tilted>0</tilted></_>
    <_>
      <rects>
        <_>
          1 3 3 1 -1.</_>
        <_>
          2 3 1 1 3.</_></rects>
      <tilted>0</tilted></_>
    <_>
      <rects>
        <_>
          1 6 8 18 -1.</_>
        <_>
          1 6 4 9 2.</_>
        <_>
          5 15 4 9 2.</_></rects>
      <tilted>0</tilted></_>
    <_>
      <rects>
        <_>
          1 8 8 16 -1.</_>
        <_>
          1 8 4 8 2.</_>
        <_>
          5 16 4 8 2.</_></rects>
      <tilted>0</tilted></_>
    <_>
      <rects>
        <_>
          1 13 6 11 -1.</_>
        <_>
          3 13 2 11 3.</_></rects>
      <tilted>0</tilted></_>
    <_>
      <rects>
        <_>
          1 15 12 6 -1.</_>
        <_>
          5 15 4 6 3.</_></rects>
      <tilted>0</tilted></_>
    <_>
      <rects>
        <_>
          1 18 9 2 -1.</_>
        <_>
          4 18 3 2 3.</_></rects>
      <tilted>0</tilted></_>
    <_>
      <rects>
        <_>
          2 0 3 6 -1.</_>
        <_>
          2 3 3 3 2.</_></rects>
      <tilted>0</tilted></_>
    <_>
      <rects>
        <_>
          2 2 10 6 -1.</_>
        <_>
          2 2 5 3 2.</_>
        <_>
          7 5 5 3 2.</_></rects>
      <tilted>0</tilted></_>
    <_>
      <rects>
        <_>
          2 4 4 14 -1.</_>
        <_>
          2 4 2 7 2.</_>
        <_>
          4 11 2 7 2.</_></rects>
      <tilted>0</tilted></_>
    <_>
      <rects>
        <_>
          2 4 6 14 -1.</_>
        <_>
          4 4 2 14 3.</_></rects>
      <tilted>0</tilted></_>
    <_>
      <rects>
        <_>
          2 6 11 3 -1.</_>
        <_>
          2 7 11 1 3.</_></rects>
      <tilted>0</tilted></_>
    <_>
      <rects>
        <_>
          2 8 6 9 -1.</_>
        <_>
          4 8 2 9 3.</_></rects>
      <tilted>0</tilted></_>
    <_>
      <rects>
        <_>
          3 12 2 3 -1.</_>
        <_>
          3 13 2 1 3.</_></rects>
      <tilted>0</tilted></_>
    <_>
      <rects>
        <_>
          3 12 4 3 -1.</_>
        <_>
          3 13 4 1 3.</_></rects>
      <tilted>0</tilted></_>
    <_>
      <rects>
        <_>
          4 8 10 2 -1.</_>
        <_>
          4 8 5 1 2.</_>
        <_>
          9 9 5 1 2.</_></rects>
      <tilted>0</tilted></_>
    <_>
      <rects>
        <_>
          4 10 2 2 -1.</_>
        <_>
          4 10 1 1 2.</_>
        <_>
          5 11 1 1 2.</_></rects>
      <tilted>0</tilted></_>
    <_>
      <rects>
        <_>
          5 6 9 3 -1.</_>
        <_>
          5 7 9 1 3.</_></rects>
      <tilted>0</tilted></_>
    <_>
      <rects>
        <_>
          5 9 5 10 -1.</_>
        <_>
          5 14 5 5 2.</_></rects>
      <tilted>0</tilted></_>
    <_>
      <rects>
        <_>
          5 23 3 1 -1.</_>
        <_>
          6 23 1 1 3.</_></rects>
      <tilted>0</tilted></_>
    <_>
      <rects>
        <_>
          6 1 10 8 -1.</_>
        <_>
          11 1 5 8 2.</_></rects>
      <tilted>0</tilted></_>
    <_>
      <rects>
        <_>
          6 6 3 11 -1.</_>
        <_>
          7 6 1 11 3.</_></rects>
      <tilted>0</tilted></_>
    <_>
      <rects>
        <_>
          6 12 7 2 -1.</_>
        <_>
          6 13 7 1 2.</_></rects>
      <tilted>0</tilted></_>
    <_>
      <rects>
        <_>
          6 20 3 2 -1.</_>
        <_>
          7 20 1 2 3.</_></rects>
      <tilted>0</tilted></_>
    <_>
      <rects>
        <_>
          6 21 7 3 -1.</_>
        <_>
          6 22 7 1 3.</_></rects>
      <tilted>0</tilted></_>
    <_>
      <rects>
        <_>
          7 0 6 12 -1.</_>
        <_>
          10 0 3 12 2.</_></rects>
      <tilted>0</tilted></_>
    <_>
      <rects>
        <_>
          7 11 8 2 -1.</_>
        <_>
          7 12 8 1 2.</_></rects>
      <tilted>0</tilted></_>
    <_>
      <rects>
        <_>
          7 21 8 3 -1.</_>
        <_>
          7 22 8 1 3.</_></rects>
      <tilted>0</tilted></_>
    <_>
      <rects>
        <_>
          7 22 4 2 -1.</_>
        <_>
          9 22 2 2 2.</_></rects>
      <tilted>0</tilted></_>
    <_>
      <rects>
        <_>
          8 1 6 2 -1.</_>
        <_>
          10 1 2 2 3.</_></rects>
      <tilted>0</tilted></_>
    <_>
      <rects>
        <_>
          8 2 9 15 -1.</_>
        <_>
          11 2 3 15 3.</_></rects>
      <tilted>0</tilted></_>
    <_>
      <rects>
        <_>
          8 5 16 1 -1.</_>
        <_>
          16 5 8 1 2.</_></rects>
      <tilted>0</tilted></_>
    <_>
      <rects>
        <_>
          8 7 11 12 -1.</_>
        <_>
          8 13 11 6 2.</_></rects>
      <tilted>0</tilted></_>
    <_>
      <rects>
        <_>
          8 9 16 3 -1.</_>
        <_>
          8 10 16 1 3.</_></rects>
      <tilted>0</tilted></_>
    <_>
      <rects>
        <_>
          8 15 2 8 -1.</_>
        <_>
          9 15 1 8 2.</_></rects>
      <tilted>0</tilted></_>
    <_>
      <rects>
        <_>
          8 17 16 2 -1.</_>
        <_>
          8 17 8 1 2.</_>
        <_>
          16 18 8 1 2.</_></rects>
      <tilted>0</tilted></_>
    <_>
      <rects>
        <_>
          9 0 14 6 -1.</_>
        <_>
          9 0 7 3 2.</_>
        <_>
          16 3 7 3 2.</_></rects>
      <tilted>0</tilted></_>
    <_>
      <rects>
        <_>
          9 1 6 6 -1.</_>
        <_>
          11 1 2 6 3.</_></rects>
      <tilted>0</tilted></_>
    <_>
      <rects>
        <_>
          9 6 6 6 -1.</_>
        <_>
          11 6 2 6 3.</_></rects>
      <tilted>0</tilted></_>
    <_>
      <rects>
        <_>
          9 7 4 3 -1.</_>
        <_>
          9 8 4 1 3.</_></rects>
      <tilted>0</tilted></_>
    <_>
      <rects>
        <_>
          9 21 4 3 -1.</_>
        <_>
          9 22 4 1 3.</_></rects>
      <tilted>0</tilted></_>
    <_>
      <rects>
        <_>
          9 21 8 3 -1.</_>
        <_>
          9 22 8 1 3.</_></rects>
      <tilted>0</tilted></_>
    <_>
      <rects>
        <_>
          9 21 11 3 -1.</_>
        <_>
          9 22 11 1 3.</_></rects>
      <tilted>0</tilted></_>
    <_>
      <rects>
        <_>
          9 22 3 2 -1.</_>
        <_>
          10 22 1 2 3.</_></rects>
      <tilted>0</tilted></_>
    <_>
      <rects>
        <_>
          10 2 12 10 -1.</_>
        <_>
          16 2 6 10 2.</_></rects>
      <tilted>0</tilted></_>
    <_>
      <rects>
        <_>
          10 6 6 5 -1.</_>
        <_>
          12 6 2 5 3.</_></rects>
      <tilted>0</tilted></_>
    <_>
      <rects>
        <_>
          10 18 6 2 -1.</_>
        <_>
          12 18 2 2 3.</_></rects>
      <tilted>0</tilted></_>
    <_>
      <rects>
        <_>
          10 21 7 3 -1.</_>
        <_>
          10 22 7 1 3.</_></rects>
      <tilted>0</tilted></_>
    <_>
      <rects>
        <_>
          11 2 6 12 -1.</_>
        <_>
          11 6 6 4 3.</_></rects>
      <tilted>0</tilted></_>
    <_>
      <rects>
        <_>
          11 4 12 10 -1.</_>
        <_>
          17 4 6 10 2.</_></rects>
      <tilted>0</tilted></_>
    <_>
      <rects>
        <_>
          11 7 3 6 -1.</_>
        <_>
          11 10 3 3 2.</_></rects>
      <tilted>0</tilted></_>
    <_>
      <rects>
        <_>
          11 8 2 2 -1.</_>
        <_>
          11 8 1 1 2.</_>
        <_>
          12 9 1 1 2.</_></rects>
      <tilted>0</tilted></_>
    <_>
      <rects>
        <_>
          11 12 3 3 -1.</_>
        <_>
          11 13 3 1 3.</_></rects>
      <tilted>0</tilted></_>
    <_>
      <rects>
        <_>
          11 13 4 6 -1.</_>
        <_>
          11 15 4 2 3.</_></rects>
      <tilted>0</tilted></_>
    <_>
      <rects>
        <_>
          11 14 3 10 -1.</_>
        <_>
          12 14 1 10 3.</_></rects>
      <tilted>0</tilted></_>
    <_>
      <rects>
        <_>
          11 22 2 2 -1.</_>
        <_>
          11 23 2 1 2.</_></rects>
      <tilted>0</tilted></_>
    <_>
      <rects>
        <_>
          11 22 5 2 -1.</_>
        <_>
          11 23 5 1 2.</_></rects>
      <tilted>0</tilted></_>
    <_>
      <rects>
        <_>
          12 0 8 8 -1.</_>
        <_>
          12 0 4 4 2.</_>
        <_>
          16 4 4 4 2.</_></rects>
      <tilted>0</tilted></_>
    <_>
      <rects>
        <_>
          12 7 3 2 -1.</_>
        <_>
          13 7 1 2 3.</_></rects>
      <tilted>0</tilted></_>
    <_>
      <rects>
        <_>
          12 8 3 3 -1.</_>
        <_>
          12 9 3 1 3.</_></rects>
      <tilted>0</tilted></_>
    <_>
      <rects>
        <_>
          12 13 5 2 -1.</_>
        <_>
          12 14 5 1 2.</_></rects>
      <tilted>0</tilted></_>
    <_>
      <rects>
        <_>
          12 19 1 3 -1.</_>
        <_>
          12 20 1 1 3.</_></rects>
      <tilted>0</tilted></_>
    <_>
      <rects>
        <_>
          12 19 9 5 -1.</_>
        <_>
          15 19 3 5 3.</_></rects>
      <tilted>0</tilted></_>
    <_>
      <rects>
        <_>
          13 5 10 7 -1.</_>
        <_>
          18 5 5 7 2.</_></rects>
      <tilted>0</tilted></_>
    <_>
      <rects>
        <_>
          13 7 4 16 -1.</_>
        <_>
          13 7 2 8 2.</_>
        <_>
          15 15 2 8 2.</_></rects>
      <tilted>0</tilted></_>
    <_>
      <rects>
        <_>
          13 20 2 2 -1.</_>
        <_>
          13 20 1 1 2.</_>
        <_>
          14 21 1 1 2.</_></rects>
      <tilted>0</tilted></_>
    <_>
      <rects>
        <_>
          14 6 10 14 -1.</_>
        <_>
          14 6 5 7 2.</_>
        <_>
          19 13 5 7 2.</_></rects>
      <tilted>0</tilted></_>
    <_>
      <rects>
        <_>
          15 4 2 20 -1.</_>
        <_>
          15 14 2 10 2.</_></rects>
      <tilted>0</tilted></_>
    <_>
      <rects>
        <_>
          15 8 7 3 -1.</_>
        <_>
          15 9 7 1 3.</_></rects>
      <tilted>0</tilted></_>
    <_>
      <rects>
        <_>
          16 4 6 14 -1.</_>
        <_>
          16 4 3 7 2.</_>
        <_>
          19 11 3 7 2.</_></rects>
      <tilted>0</tilted></_>
    <_>
      <rects>
        <_>
          16 7 3 12 -1.</_>
        <_>
          17 7 1 12 3.</_></rects>
      <tilted>0</tilted></_>
    <_>
      <rects>
        <_>
          16 13 6 6 -1.</_>
        <_>
          18 13 2 6 3.</_></rects>
      <tilted>0</tilted></_>
    <_>
      <rects>
        <_>
          16 15 6 7 -1.</_>
        <_>
          18 15 2 7 3.</_></rects>
      <tilted>0</tilted></_>
    <_>
      <rects>
        <_>
          17 13 3 2 -1.</_>
        <_>
          17 14 3 1 2.</_></rects>
      <tilted>0</tilted></_>
    <_>
      <rects>
        <_>
          18 4 6 8 -1.</_>
        <_>
          20 4 2 8 3.</_></rects>
      <tilted>0</tilted></_>
    <_>
      <rects>
        <_>
          18 10 4 3 -1.</_>
        <_>
          18 11 4 1 3.</_></rects>
      <tilted>0</tilted></_>
    <_>
      <rects>
        <_>
          18 11 5 3 -1.</_>
        <_>
          18 12 5 1 3.</_></rects>
      <tilted>0</tilted></_>
    <_>
      <rects>
        <_>
          18 12 3 3 -1.</_>
        <_>
          18 13 3 1 3.</_></rects>
      <tilted>0</tilted></_>
    <_>
      <rects>
        <_>
          19 0 4 1 -1.</_>
        <_>
          21 0 2 1 2.</_></rects>
      <tilted>0</tilted></_>
    <_>
      <rects>
        <_>
          19 11 1 3 -1.</_>
        <_>
          19 12 1 1 3.</_></rects>
      <tilted>0</tilted></_>
    <_>
      <rects>
        <_>
          20 6 1 3 -1.</_>
        <_>
          20 7 1 1 3.</_></rects>
      <tilted>0</tilted></_>
    <_>
      <rects>
        <_>
          20 15 3 8 -1.</_>
        <_>
          21 15 1 8 3.</_></rects>
      <tilted>0</tilted></_>
    <_>
      <rects>
        <_>
          21 4 3 14 -1.</_>
        <_>
          22 4 1 14 3.</_></rects>
      <tilted>0</tilted></_>
    <_>
      <rects>
        <_>
          21 13 3 3 -1.</_>
        <_>
          21 14 3 1 3.</_></rects>
      <tilted>0</tilted></_>
    <_>
      <rects>
        <_>
          22 0 2 2 -1.</_>
        <_>
          22 0 1 1 2.</_>
        <_>
          23 1 1 1 2.</_></rects>
      <tilted>0</tilted></_></features></cascade>
</opencv_storage>
