<?xml version="1.0"?>
<opencv_storage>
<cascade>
  <stageType>BOOST</stageType>
  <featureType>HAAR</featureType>
  <height>20</height>
  <width>20</width>
  <stageParams>
    <boostType>GAB</boostType>
    <minHitRate>9.9500000476837158e-01</minHitRate>
    <maxFalseAlarm>5.0000000000000000e-01</maxFalseAlarm>
    <weightTrimRate>9.4999999999999996e-01</weightTrimRate>
    <maxDepth>1</maxDepth>
    <maxWeakCount>100</maxWeakCount></stageParams>
  <featureParams>
    <maxCatCount>0</maxCatCount>
    <featSize>1</featSize>
    <mode>BASIC</mode></featureParams>
  <stageNum>2</stageNum>
  <stages>
    <!-- stage 0 -->
    <_>
      <maxWeakCount>5</maxWeakCount>
      <stageThreshold>-1.3139524459838867e+00</stageThreshold>
      <weakClassifiers>
        <_>
          <internalNodes>
            0 -1 0 4.7655101865530014e-02</internalNodes>
          <leafValues>
            -8.4199583530426025e-01 7.8034681081771851e-01</leafValues></_>
        <_>
          <internalNodes>
            0 -1 8 -2.8498813509941101e-02</internalNodes>
          <leafValues>
            6.8024188280105591e-01 -7.3730891942977905e-01</leafValues></_>
        <_>
          <internalNodes>
            0 -1 2 8.5939541459083557e-02</internalNodes>
          <leafValues>
            -9.2642158269882202e-01 3.7738591432571411e-01</leafValues></_>
        <_>
          <internalNodes>
            0 -1 4 6.1687398701906204e-02</internalNodes>
          <leafValues>
            -7.1497106552124023e-01 3.4674915671348572e-01</leafValues></_>
        <_>
          <internalNodes>
            0 -1 5 7.5338903116062284e-04</internalNodes>
          <leafValues>
            -5.1698225736618042e-01 6.0293740034103394e-01</leafValues></_></weakClassifiers></_>
    <!-- stage 1 -->
    <_>
      <maxWeakCount>4</maxWeakCount>
      <stageThreshold>-8.5768961906433105e-01</stageThreshold>
      <weakClassifiers>
        <_>
          <internalNodes>
            0 -1 6 3.7592869251966476e-02</internalNodes>
          <leafValues>
            -7.6119405031204224e-01 6.7231637239456177e-01</leafValues></_>
        <_>
          <internalNodes>
            0 -1 1 1.5472967177629471e-02</internalNodes>
          <leafValues>
            -6.8181985616683960e-01 4.8008227348327637e-01</leafValues></_>
        <_>
          <internalNodes>
            0 -1 7 6.8284571170806885e-02</internalNodes>
          <leafValues>
            -8.0138784646987915e-01 3.1264412403106689e-01</leafValues></_>
        <_>
          <internalNodes>
            0 -1 3 2.3994956165552139e-02</internalNodes>
          <leafValues>
            -6.4871937036514282e-01 2.7268013358116150e-01</leafValues></_></weakClassifiers></_></stages>
  <features>
    <_>
      <rects>
        <_>
          0 7 8 12 -1.</_>
        <_>
          0 7 4 6 2.</_>
        <_>
          4 13 4 6 2.</_></rects>
      <tilted>0</tilted></_>
    <_>
      <rects>
        <_>
          2 0 3 6 -1.</_>
        <_>
          2 3 3 3 2.</_></rects>
      <tilted>0</tilted></_>
    <_>
      <rects>
        <_>
          2 1 15 19 -1.</_>
        <_>
          7 1 5 19 3.</_></rects>
      <tilted>0</tilted></_>
    <_>
      <rects>
        <_>
          5 16 15 2 -1.</_>
        <_>
          10 16 5 2 3.</_></rects>
      <tilted>0</tilted></_>
    <_>
      <rects>
        <_>
          6 6 5 12 -1.</_>
        <_>
          6 12 5 6 2.</_></rects>
      <tilted>0</tilted></_>
    <_>
      <rects>
        <_>
          6 17 6 3 -1.</_>
        <_>
          6 18 6 1 3.</_></rects>
      <tilted>0</tilted></_>
    <_>
      <rects>
        <_>
          7 0 6 10 -1.</_>
        <_>
          9 0 2 10 3.</_></rects>
      <tilted>0</tilted></_>
    <_>
      <rects>
        <_>
          8 2 4 16 -1.</_>
        <_>
          8 10 4 8 2.</_></rects>
      <tilted>0</tilted></_>
    <_>
      <rects>
        <_>
          12 6 8 10 -1.</_>
        <_>
          12 6 4 5 2.</_>
        <_>
          16 11 4 5 2.</_></rects>
      <tilted>0</tilted></_></features></cascade>
</opencv_storage>
