<?xml version="1.0"?>
<opencv_storage>
<stage2>
  <maxWeakCount>6</maxWeakCount>
  <stageThreshold>-9.5247393846511841e-01</stageThreshold>
  <weakClassifiers>
    <_>
      <internalNodes>
        0 -1 20455 3.4883536398410797e-02</internalNodes>
      <leafValues>
        -8.1673306226730347e-01 5.8739256858825684e-01</leafValues></_>
    <_>
      <internalNodes>
        0 -1 136391 -5.1210582256317139e-02</internalNodes>
      <leafValues>
        5.2492994070053101e-01 -6.3942277431488037e-01</leafValues></_>
    <_>
      <internalNodes>
        0 -1 89738 9.9354214034974575e-04</internalNodes>
      <leafValues>
        -3.5005226731300354e-01 5.8700138330459595e-01</leafValues></_>
    <_>
      <internalNodes>
        0 -1 80473 -6.8800785811617970e-05</internalNodes>
      <leafValues>
        -7.4145925045013428e-01 2.8543412685394287e-01</leafValues></_>
    <_>
      <internalNodes>
        0 -1 116868 3.1162351369857788e-02</internalNodes>
      <leafValues>
        2.3261377215385437e-01 -7.4765509366989136e-01</leafValues></_>
    <_>
      <internalNodes>
        0 -1 66900 2.7520924806594849e-02</internalNodes>
      <leafValues>
        -6.0136741399765015e-01 3.5508707165718079e-01</leafValues></_></weakClassifiers></stage2>
</opencv_storage>
