<?xml version="1.0"?>
<opencv_storage>
<stage5>
  <maxWeakCount>14</maxWeakCount>
  <stageThreshold>-1.0922284126281738e+00</stageThreshold>
  <weakClassifiers>
    <_>
      <internalNodes>
        0 -1 32631 1.2273592874407768e-02</internalNodes>
      <leafValues>
        -2.8912466764450073e-01 4.8878923058509827e-01</leafValues></_>
    <_>
      <internalNodes>
        0 -1 119993 2.7091545052826405e-03</internalNodes>
      <leafValues>
        1.6769437491893768e-01 -6.3837420940399170e-01</leafValues></_>
    <_>
      <internalNodes>
        0 -1 23251 3.1687684822827578e-03</internalNodes>
      <leafValues>
        -4.3875983357429504e-01 2.0149435102939606e-01</leafValues></_>
    <_>
      <internalNodes>
        0 -1 114340 9.8895351402461529e-04</internalNodes>
      <leafValues>
        -2.0671489834785461e-01 5.0413507223129272e-01</leafValues></_>
    <_>
      <internalNodes>
        0 -1 87418 2.4245701206382364e-04</internalNodes>
      <leafValues>
        -7.9736602306365967e-01 1.1729304492473602e-01</leafValues></_>
    <_>
      <internalNodes>
        0 -1 145494 -3.9994597434997559e-02</internalNodes>
      <leafValues>
        3.8096317648887634e-01 -2.8115245699882507e-01</leafValues></_>
    <_>
      <internalNodes>
        0 -1 65360 -3.6013275384902954e-03</internalNodes>
      <leafValues>
        -7.2846812009811401e-01 1.9112192094326019e-01</leafValues></_>
    <_>
      <internalNodes>
        0 -1 125157 1.2531173415482044e-03</internalNodes>
      <leafValues>
        1.0841500759124756e-01 -7.6962137222290039e-01</leafValues></_>
    <_>
      <internalNodes>
        0 -1 98031 1.5840987907722592e-04</internalNodes>
      <leafValues>
        1.9900377094745636e-01 -4.4326910376548767e-01</leafValues></_>
    <_>
      <internalNodes>
        0 -1 56690 -3.8225110620260239e-04</internalNodes>
      <leafValues>
        -6.7801815271377563e-01 1.0252758860588074e-01</leafValues></_>
    <_>
      <internalNodes>
        0 -1 156906 3.4195760963484645e-04</internalNodes>
      <leafValues>
        1.4397937059402466e-01 -5.6226438283920288e-01</leafValues></_>
    <_>
      <internalNodes>
        0 -1 133594 -9.7338750492781401e-05</internalNodes>
      <leafValues>
        -5.5991894006729126e-01 1.4397658407688141e-01</leafValues></_>
    <_>
      <internalNodes>
        0 -1 146202 -3.4514074213802814e-03</internalNodes>
      <leafValues>
        2.8256243467330933e-01 -3.2431557774543762e-01</leafValues></_>
    <_>
      <internalNodes>
        0 -1 130422 7.3667243123054504e-02</internalNodes>
      <leafValues>
        1.4353737235069275e-01 -7.1090793609619141e-01</leafValues></_></weakClassifiers></stage5>
</opencv_storage>
