<?xml version="1.0"?>
<opencv_storage>
<cascade>
  <stageType>BOOST</stageType>
  <featureType>HAAR</featureType>
  <height>24</height>
  <width>24</width>
  <stageParams>
    <boostType>GAB</boostType>
    <minHitRate>9.9500000476837158e-01</minHitRate>
    <maxFalseAlarm>5.0000000000000000e-01</maxFalseAlarm>
    <weightTrimRate>9.4999999999999996e-01</weightTrimRate>
    <maxDepth>1</maxDepth>
    <maxWeakCount>100</maxWeakCount></stageParams>
  <featureParams>
    <maxCatCount>0</maxCatCount>
    <featSize>1</featSize>
    <mode>BASIC</mode></featureParams>
  <stageNum>9</stageNum>
  <stages>
    <!-- stage 0 -->
    <_>
      <maxWeakCount>3</maxWeakCount>
      <stageThreshold>-1.1619540452957153e+00</stageThreshold>
      <weakClassifiers>
        <_>
          <internalNodes>
            0 -1 16 -3.8512408733367920e-02</internalNodes>
          <leafValues>
            9.1578948497772217e-01 -8.2857143878936768e-01</leafValues></_>
        <_>
          <internalNodes>
            0 -1 46 1.8417369574308395e-02</internalNodes>
          <leafValues>
            -8.1654351949691772e-01 7.4334818124771118e-01</leafValues></_>
        <_>
          <internalNodes>
            0 -1 48 -4.3377719819545746e-02</internalNodes>
          <leafValues>
            4.8316088318824768e-01 -9.8931241035461426e-01</leafValues></_></weakClassifiers></_>
    <!-- stage 1 -->
    <_>
      <maxWeakCount>3</maxWeakCount>
      <stageThreshold>-1.1774899959564209e+00</stageThreshold>
      <weakClassifiers>
        <_>
          <internalNodes>
            0 -1 10 -2.0420704036951065e-02</internalNodes>
          <leafValues>
            7.8328174352645874e-01 -9.1335737705230713e-01</leafValues></_>
        <_>
          <internalNodes>
            0 -1 5 6.1001800000667572e-02</internalNodes>
          <leafValues>
            -8.0267834663391113e-01 6.4643371105194092e-01</leafValues></_>
        <_>
          <internalNodes>
            0 -1 22 -2.8667245060205460e-03</internalNodes>
          <leafValues>
            5.3854572772979736e-01 -5.6440496444702148e-01</leafValues></_></weakClassifiers></_>
    <!-- stage 2 -->
    <_>
      <maxWeakCount>4</maxWeakCount>
      <stageThreshold>-1.3207609653472900e+00</stageThreshold>
      <weakClassifiers>
        <_>
          <internalNodes>
            0 -1 44 -6.2112301588058472e-02</internalNodes>
          <leafValues>
            7.7162629365921021e-01 -7.1704179048538208e-01</leafValues></_>
        <_>
          <internalNodes>
            0 -1 60 4.7424081712961197e-03</internalNodes>
          <leafValues>
            -6.2430149316787720e-01 4.2469927668571472e-01</leafValues></_>
        <_>
          <internalNodes>
            0 -1 54 -1.9734725356101990e-02</internalNodes>
          <leafValues>
            4.5451781153678894e-01 -4.3096950650215149e-01</leafValues></_>
        <_>
          <internalNodes>
            0 -1 19 -8.2558725262060761e-04</internalNodes>
          <leafValues>
            4.5155176520347595e-01 -4.4612324237823486e-01</leafValues></_></weakClassifiers></_>
    <!-- stage 3 -->
    <_>
      <maxWeakCount>4</maxWeakCount>
      <stageThreshold>-8.7402385473251343e-01</stageThreshold>
      <weakClassifiers>
        <_>
          <internalNodes>
            0 -1 26 7.6859742403030396e-02</internalNodes>
          <leafValues>
            -7.7192980051040649e-01 4.7311827540397644e-01</leafValues></_>
        <_>
          <internalNodes>
            0 -1 7 1.0596695356070995e-02</internalNodes>
          <leafValues>
            -5.1234775781631470e-01 3.2222035527229309e-01</leafValues></_>
        <_>
          <internalNodes>
            0 -1 35 1.0955034522339702e-03</internalNodes>
          <leafValues>
            -5.8409488201141357e-01 2.1817444264888763e-01</leafValues></_>
        <_>
          <internalNodes>
            0 -1 30 -1.6673130448907614e-04</internalNodes>
          <leafValues>
            -7.2990536689758301e-01 1.9207932054996490e-01</leafValues></_></weakClassifiers></_>
    <!-- stage 4 -->
    <_>
      <maxWeakCount>9</maxWeakCount>
      <stageThreshold>-9.8830777406692505e-01</stageThreshold>
      <weakClassifiers>
        <_>
          <internalNodes>
            0 -1 25 -1.8492516130208969e-02</internalNodes>
          <leafValues>
            2.8074246644973755e-01 -7.1597635746002197e-01</leafValues></_>
        <_>
          <internalNodes>
            0 -1 58 9.3595068901777267e-03</internalNodes>
          <leafValues>
            -6.1303603649139404e-01 1.4287401735782623e-01</leafValues></_>
        <_>
          <internalNodes>
            0 -1 38 1.1514415964484215e-03</internalNodes>
          <leafValues>
            1.3444326817989349e-01 -6.9534885883331299e-01</leafValues></_>
        <_>
          <internalNodes>
            0 -1 12 -2.4651986313983798e-04</internalNodes>
          <leafValues>
            -7.1453094482421875e-01 1.3676314055919647e-01</leafValues></_>
        <_>
          <internalNodes>
            0 -1 41 -7.1002519689500332e-04</internalNodes>
          <leafValues>
            -6.1690348386764526e-01 1.5218950808048248e-01</leafValues></_>
        <_>
          <internalNodes>
            0 -1 59 -7.0942624006420374e-04</internalNodes>
          <leafValues>
            -7.0822745561599731e-01 1.4569619297981262e-01</leafValues></_>
        <_>
          <internalNodes>
            0 -1 43 4.1125030838884413e-04</internalNodes>
          <leafValues>
            -2.1918152272701263e-01 5.1918488740921021e-01</leafValues></_>
        <_>
          <internalNodes>
            0 -1 1 5.4280471522361040e-04</internalNodes>
          <leafValues>
            -2.4090848863124847e-01 4.0864071249961853e-01</leafValues></_>
        <_>
          <internalNodes>
            0 -1 65 6.8989262217655778e-04</internalNodes>
          <leafValues>
            1.0209025442600250e-01 -9.1283917427062988e-01</leafValues></_></weakClassifiers></_>
    <!-- stage 5 -->
    <_>
      <maxWeakCount>15</maxWeakCount>
      <stageThreshold>-1.0162333250045776e+00</stageThreshold>
      <weakClassifiers>
        <_>
          <internalNodes>
            0 -1 31 4.0687538683414459e-02</internalNodes>
          <leafValues>
            -6.1538463830947876e-01 3.2653060555458069e-01</leafValues></_>
        <_>
          <internalNodes>
            0 -1 8 -6.5827544312924147e-04</internalNodes>
          <leafValues>
            4.5872858166694641e-01 -2.7663365006446838e-01</leafValues></_>
        <_>
          <internalNodes>
            0 -1 39 1.1310431000310928e-04</internalNodes>
          <leafValues>
            -4.5558279752731323e-01 2.4048529565334320e-01</leafValues></_>
        <_>
          <internalNodes>
            0 -1 50 -8.8594943284988403e-02</internalNodes>
          <leafValues>
            4.8851779103279114e-01 -2.0653696358203888e-01</leafValues></_>
        <_>
          <internalNodes>
            0 -1 0 -1.2931728269904852e-04</internalNodes>
          <leafValues>
            5.9464687108993530e-01 -2.0436765253543854e-01</leafValues></_>
        <_>
          <internalNodes>
            0 -1 40 3.1635444611310959e-04</internalNodes>
          <leafValues>
            -1.9004935026168823e-01 5.7450544834136963e-01</leafValues></_>
        <_>
          <internalNodes>
            0 -1 42 3.6337491474114358e-04</internalNodes>
          <leafValues>
            -6.3869071006774902e-01 1.9900035858154297e-01</leafValues></_>
        <_>
          <internalNodes>
            0 -1 2 5.7898610830307007e-03</internalNodes>
          <leafValues>
            -1.7656481266021729e-01 6.9278681278228760e-01</leafValues></_>
        <_>
          <internalNodes>
            0 -1 28 9.1025850269943476e-04</internalNodes>
          <leafValues>
            1.7910633981227875e-01 -6.6739261150360107e-01</leafValues></_>
        <_>
          <internalNodes>
            0 -1 47 -3.7979500484652817e-04</internalNodes>
          <leafValues>
            1.9927100837230682e-01 -5.7021880149841309e-01</leafValues></_>
        <_>
          <internalNodes>
            0 -1 29 8.3559320773929358e-04</internalNodes>
          <leafValues>
            -5.8619451522827148e-01 1.4461173117160797e-01</leafValues></_>
        <_>
          <internalNodes>
            0 -1 3 -1.1009631998604164e-04</internalNodes>
          <leafValues>
            -6.2905603647232056e-01 1.4119118452072144e-01</leafValues></_>
        <_>
          <internalNodes>
            0 -1 56 -1.5655932947993279e-03</internalNodes>
          <leafValues>
            -7.1899807453155518e-01 1.5000163018703461e-01</leafValues></_>
        <_>
          <internalNodes>
            0 -1 61 2.0254231058061123e-03</internalNodes>
          <leafValues>
            8.5015259683132172e-02 -7.7900427579879761e-01</leafValues></_>
        <_>
          <internalNodes>
            0 -1 15 -1.6659260727465153e-03</internalNodes>
          <leafValues>
            -9.2672145366668701e-01 8.4868133068084717e-02</leafValues></_></weakClassifiers></_>
    <!-- stage 6 -->
    <_>
      <maxWeakCount>8</maxWeakCount>
      <stageThreshold>-7.4171495437622070e-01</stageThreshold>
      <weakClassifiers>
        <_>
          <internalNodes>
            0 -1 4 1.0422021150588989e-02</internalNodes>
          <leafValues>
            -6.5384614467620850e-01 5.0000000000000000e-01</leafValues></_>
        <_>
          <internalNodes>
            0 -1 53 -2.5819581001996994e-02</internalNodes>
          <leafValues>
            4.7235184907913208e-01 -4.9763062596321106e-01</leafValues></_>
        <_>
          <internalNodes>
            0 -1 64 -1.1427786666899920e-03</internalNodes>
          <leafValues>
            3.2773095369338989e-01 -4.4869965314865112e-01</leafValues></_>
        <_>
          <internalNodes>
            0 -1 14 1.9489434361457825e-01</internalNodes>
          <leafValues>
            2.5250864028930664e-01 -6.4188069105148315e-01</leafValues></_>
        <_>
          <internalNodes>
            0 -1 18 1.0554478503763676e-03</internalNodes>
          <leafValues>
            -3.5683211684226990e-01 4.6427828073501587e-01</leafValues></_>
        <_>
          <internalNodes>
            0 -1 33 -1.7282071057707071e-03</internalNodes>
          <leafValues>
            -6.3495880365371704e-01 1.7883144319057465e-01</leafValues></_>
        <_>
          <internalNodes>
            0 -1 23 -2.1955799311399460e-03</internalNodes>
          <leafValues>
            2.4560141563415527e-01 -5.7008767127990723e-01</leafValues></_>
        <_>
          <internalNodes>
            0 -1 52 -4.4115044176578522e-02</internalNodes>
          <leafValues>
            6.9482332468032837e-01 -2.3807848989963531e-01</leafValues></_></weakClassifiers></_>
    <!-- stage 7 -->
    <_>
      <maxWeakCount>9</maxWeakCount>
      <stageThreshold>-9.1810113191604614e-01</stageThreshold>
      <weakClassifiers>
        <_>
          <internalNodes>
            0 -1 57 5.2448078989982605e-02</internalNodes>
          <leafValues>
            -6.3720929622650146e-01 3.5584416985511780e-01</leafValues></_>
        <_>
          <internalNodes>
            0 -1 34 1.4785249717533588e-02</internalNodes>
          <leafValues>
            -7.7781337499618530e-01 2.2874939441680908e-01</leafValues></_>
        <_>
          <internalNodes>
            0 -1 21 -3.9290781132876873e-03</internalNodes>
          <leafValues>
            7.0050036907196045e-01 -1.5814091265201569e-01</leafValues></_>
        <_>
          <internalNodes>
            0 -1 20 -2.1108270157128572e-03</internalNodes>
          <leafValues>
            2.1965821087360382e-01 -5.3777354955673218e-01</leafValues></_>
        <_>
          <internalNodes>
            0 -1 27 -5.4068574681878090e-03</internalNodes>
          <leafValues>
            7.1133488416671753e-01 -1.6764181852340698e-01</leafValues></_>
        <_>
          <internalNodes>
            0 -1 62 -5.1252346020191908e-04</internalNodes>
          <leafValues>
            -6.0855937004089355e-01 2.0674182474613190e-01</leafValues></_>
        <_>
          <internalNodes>
            0 -1 63 -8.3591126895043999e-05</internalNodes>
          <leafValues>
            4.2659547924995422e-01 -2.8079453110694885e-01</leafValues></_>
        <_>
          <internalNodes>
            0 -1 9 9.1164959594607353e-03</internalNodes>
          <leafValues>
            1.3895121216773987e-01 -8.7425816059112549e-01</leafValues></_>
        <_>
          <internalNodes>
            0 -1 51 -5.7836947962641716e-03</internalNodes>
          <leafValues>
            6.4001762866973877e-01 -1.6924245655536652e-01</leafValues></_></weakClassifiers></_>
    <!-- stage 8 -->
    <_>
      <maxWeakCount>12</maxWeakCount>
      <stageThreshold>-7.9845231771469116e-01</stageThreshold>
      <weakClassifiers>
        <_>
          <internalNodes>
            0 -1 13 3.3507708460092545e-02</internalNodes>
          <leafValues>
            -3.2967033982276917e-01 5.0847458839416504e-01</leafValues></_>
        <_>
          <internalNodes>
            0 -1 66 -1.5449099009856582e-04</internalNodes>
          <leafValues>
            6.1767667531967163e-01 -1.6308264434337616e-01</leafValues></_>
        <_>
          <internalNodes>
            0 -1 45 -2.7005795855075121e-03</internalNodes>
          <leafValues>
            1.6454795002937317e-01 -5.0743913650512695e-01</leafValues></_>
        <_>
          <internalNodes>
            0 -1 32 6.9854967296123505e-04</internalNodes>
          <leafValues>
            1.0690189152956009e-01 -8.3849579095840454e-01</leafValues></_>
        <_>
          <internalNodes>
            0 -1 49 -3.0462286667898297e-04</internalNodes>
          <leafValues>
            2.4081134796142578e-01 -3.9468762278556824e-01</leafValues></_>
        <_>
          <internalNodes>
            0 -1 11 -3.4590304130688310e-04</internalNodes>
          <leafValues>
            -7.8835415840148926e-01 1.1253803968429565e-01</leafValues></_>
        <_>
          <internalNodes>
            0 -1 17 3.0078835785388947e-02</internalNodes>
          <leafValues>
            -2.1347172558307648e-01 4.8137784004211426e-01</leafValues></_>
        <_>
          <internalNodes>
            0 -1 37 1.7257722793146968e-03</internalNodes>
          <leafValues>
            1.4738711714744568e-01 -6.0931730270385742e-01</leafValues></_>
        <_>
          <internalNodes>
            0 -1 55 8.4497476927936077e-04</internalNodes>
          <leafValues>
            9.2570617794990540e-02 -8.2011312246322632e-01</leafValues></_>
        <_>
          <internalNodes>
            0 -1 6 5.4311104118824005e-02</internalNodes>
          <leafValues>
            -1.6976067423820496e-01 6.6591274738311768e-01</leafValues></_>
        <_>
          <internalNodes>
            0 -1 24 -6.4791738986968994e-04</internalNodes>
          <leafValues>
            2.3182097077369690e-01 -5.0969868898391724e-01</leafValues></_>
        <_>
          <internalNodes>
            0 -1 36 -2.5872961850836873e-04</internalNodes>
          <leafValues>
            5.7515704631805420e-01 -1.9711826741695404e-01</leafValues></_></weakClassifiers></_></stages>
  <features>
    <_>
      <rects>
        <_>
          0 0 2 1 -1.</_>
        <_>
          1 0 1 1 2.</_></rects>
      <tilted>0</tilted></_>
    <_>
      <rects>
        <_>
          0 0 4 2 -1.</_>
        <_>
          0 0 2 1 2.</_>
        <_>
          2 1 2 1 2.</_></rects>
      <tilted>0</tilted></_>
    <_>
      <rects>
        <_>
          0 1 2 5 -1.</_>
        <_>
          1 1 1 5 2.</_></rects>
      <tilted>0</tilted></_>
    <_>
      <rects>
        <_>
          0 5 1 3 -1.</_>
        <_>
          0 6 1 1 3.</_></rects>
      <tilted>0</tilted></_>
    <_>
      <rects>
        <_>
          0 6 9 18 -1.</_>
        <_>
          3 6 3 18 3.</_></rects>
      <tilted>0</tilted></_>
    <_>
      <rects>
        <_>
          0 6 8 18 -1.</_>
        <_>
          0 6 4 9 2.</_>
        <_>
          4 15 4 9 2.</_></rects>
      <tilted>0</tilted></_>
    <_>
      <rects>
        <_>
          0 11 20 12 -1.</_>
        <_>
          0 11 10 6 2.</_>
        <_>
          10 17 10 6 2.</_></rects>
      <tilted>0</tilted></_>
    <_>
      <rects>
        <_>
          0 20 4 4 -1.</_>
        <_>
          2 20 2 4 2.</_></rects>
      <tilted>0</tilted></_>
    <_>
      <rects>
        <_>
          0 22 10 2 -1.</_>
        <_>
          0 22 5 1 2.</_>
        <_>
          5 23 5 1 2.</_></rects>
      <tilted>0</tilted></_>
    <_>
      <rects>
        <_>
          1 0 12 3 -1.</_>
        <_>
          5 0 4 3 3.</_></rects>
      <tilted>0</tilted></_>
    <_>
      <rects>
        <_>
          1 0 12 6 -1.</_>
        <_>
          1 0 6 3 2.</_>
        <_>
          7 3 6 3 2.</_></rects>
      <tilted>0</tilted></_>
    <_>
      <rects>
        <_>
          1 4 1 3 -1.</_>
        <_>
          1 5 1 1 3.</_></rects>
      <tilted>0</tilted></_>
    <_>
      <rects>
        <_>
          1 6 1 3 -1.</_>
        <_>
          1 7 1 1 3.</_></rects>
      <tilted>0</tilted></_>
    <_>
      <rects>
        <_>
          3 0 4 15 -1.</_>
        <_>
          3 5 4 5 3.</_></rects>
      <tilted>0</tilted></_>
    <_>
      <rects>
        <_>
          3 0 10 19 -1.</_>
        <_>
          8 0 5 19 2.</_></rects>
      <tilted>0</tilted></_>
    <_>
      <rects>
        <_>
          3 1 3 4 -1.</_>
        <_>
          4 1 1 4 3.</_></rects>
      <tilted>0</tilted></_>
    <_>
      <rects>
        <_>
          3 6 9 6 -1.</_>
        <_>
          6 6 3 6 3.</_></rects>
      <tilted>0</tilted></_>
    <_>
      <rects>
        <_>
          4 1 16 14 -1.</_>
        <_>
          4 1 8 7 2.</_>
        <_>
          12 8 8 7 2.</_></rects>
      <tilted>0</tilted></_>
    <_>
      <rects>
        <_>
          4 11 18 4 -1.</_>
        <_>
          4 11 9 2 2.</_>
        <_>
          13 13 9 2 2.</_></rects>
      <tilted>0</tilted></_>
    <_>
      <rects>
        <_>
          5 2 4 2 -1.</_>
        <_>
          5 2 2 1 2.</_>
        <_>
          7 3 2 1 2.</_></rects>
      <tilted>0</tilted></_>
    <_>
      <rects>
        <_>
          5 6 3 9 -1.</_>
        <_>
          6 6 1 9 3.</_></rects>
      <tilted>0</tilted></_>
    <_>
      <rects>
        <_>
          5 6 18 4 -1.</_>
        <_>
          11 6 6 4 3.</_></rects>
      <tilted>0</tilted></_>
    <_>
      <rects>
        <_>
          6 3 3 8 -1.</_>
        <_>
          7 3 1 8 3.</_></rects>
      <tilted>0</tilted></_>
    <_>
      <rects>
        <_>
          6 7 3 9 -1.</_>
        <_>
          7 7 1 9 3.</_></rects>
      <tilted>0</tilted></_>
    <_>
      <rects>
        <_>
          6 9 3 2 -1.</_>
        <_>
          7 9 1 2 3.</_></rects>
      <tilted>0</tilted></_>
    <_>
      <rects>
        <_>
          7 8 6 16 -1.</_>
        <_>
          7 8 3 8 2.</_>
        <_>
          10 16 3 8 2.</_></rects>
      <tilted>0</tilted></_>
    <_>
      <rects>
        <_>
          8 0 9 12 -1.</_>
        <_>
          11 0 3 12 3.</_></rects>
      <tilted>0</tilted></_>
    <_>
      <rects>
        <_>
          8 0 9 3 -1.</_>
        <_>
          8 1 9 1 3.</_></rects>
      <tilted>0</tilted></_>
    <_>
      <rects>
        <_>
          8 7 4 3 -1.</_>
        <_>
          8 8 4 1 3.</_></rects>
      <tilted>0</tilted></_>
    <_>
      <rects>
        <_>
          8 9 11 2 -1.</_>
        <_>
          8 10 11 1 2.</_></rects>
      <tilted>0</tilted></_>
    <_>
      <rects>
        <_>
          8 16 2 8 -1.</_>
        <_>
          9 16 1 8 2.</_></rects>
      <tilted>0</tilted></_>
    <_>
      <rects>
        <_>
          9 4 9 13 -1.</_>
        <_>
          12 4 3 13 3.</_></rects>
      <tilted>0</tilted></_>
    <_>
      <rects>
        <_>
          9 7 2 2 -1.</_>
        <_>
          9 7 1 1 2.</_>
        <_>
          10 8 1 1 2.</_></rects>
      <tilted>0</tilted></_>
    <_>
      <rects>
        <_>
          9 7 5 3 -1.</_>
        <_>
          9 8 5 1 3.</_></rects>
      <tilted>0</tilted></_>
    <_>
      <rects>
        <_>
          9 8 6 6 -1.</_>
        <_>
          11 8 2 6 3.</_></rects>
      <tilted>0</tilted></_>
    <_>
      <rects>
        <_>
          9 11 7 2 -1.</_>
        <_>
          9 12 7 1 2.</_></rects>
      <tilted>0</tilted></_>
    <_>
      <rects>
        <_>
          9 22 4 2 -1.</_>
        <_>
          9 23 4 1 2.</_></rects>
      <tilted>0</tilted></_>
    <_>
      <rects>
        <_>
          10 6 7 3 -1.</_>
        <_>
          10 7 7 1 3.</_></rects>
      <tilted>0</tilted></_>
    <_>
      <rects>
        <_>
          10 7 4 3 -1.</_>
        <_>
          10 8 4 1 3.</_></rects>
      <tilted>0</tilted></_>
    <_>
      <rects>
        <_>
          10 16 3 5 -1.</_>
        <_>
          11 16 1 5 3.</_></rects>
      <tilted>0</tilted></_>
    <_>
      <rects>
        <_>
          10 21 2 3 -1.</_>
        <_>
          10 22 2 1 3.</_></rects>
      <tilted>0</tilted></_>
    <_>
      <rects>
        <_>
          11 9 3 3 -1.</_>
        <_>
          11 10 3 1 3.</_></rects>
      <tilted>0</tilted></_>
    <_>
      <rects>
        <_>
          11 12 4 2 -1.</_>
        <_>
          11 13 4 1 2.</_></rects>
      <tilted>0</tilted></_>
    <_>
      <rects>
        <_>
          11 21 3 3 -1.</_>
        <_>
          11 22 3 1 3.</_></rects>
      <tilted>0</tilted></_>
    <_>
      <rects>
        <_>
          12 4 9 8 -1.</_>
        <_>
          15 4 3 8 3.</_></rects>
      <tilted>0</tilted></_>
    <_>
      <rects>
        <_>
          14 0 2 8 -1.</_>
        <_>
          15 0 1 8 2.</_></rects>
      <tilted>0</tilted></_>
    <_>
      <rects>
        <_>
          14 0 8 8 -1.</_>
        <_>
          14 0 4 4 2.</_>
        <_>
          18 4 4 4 2.</_></rects>
      <tilted>0</tilted></_>
    <_>
      <rects>
        <_>
          14 4 3 4 -1.</_>
        <_>
          15 4 1 4 3.</_></rects>
      <tilted>0</tilted></_>
    <_>
      <rects>
        <_>
          14 4 10 20 -1.</_>
        <_>
          14 4 5 10 2.</_>
        <_>
          19 14 5 10 2.</_></rects>
      <tilted>0</tilted></_>
    <_>
      <rects>
        <_>
          14 5 4 3 -1.</_>
        <_>
          14 6 4 1 3.</_></rects>
      <tilted>0</tilted></_>
    <_>
      <rects>
        <_>
          16 1 8 20 -1.</_>
        <_>
          16 1 4 10 2.</_>
        <_>
          20 11 4 10 2.</_></rects>
      <tilted>0</tilted></_>
    <_>
      <rects>
        <_>
          16 20 8 4 -1.</_>
        <_>
          16 20 4 2 2.</_>
        <_>
          20 22 4 2 2.</_></rects>
      <tilted>0</tilted></_>
    <_>
      <rects>
        <_>
          17 3 6 16 -1.</_>
        <_>
          17 3 3 8 2.</_>
        <_>
          20 11 3 8 2.</_></rects>
      <tilted>0</tilted></_>
    <_>
      <rects>
        <_>
          17 6 4 16 -1.</_>
        <_>
          17 6 2 8 2.</_>
        <_>
          19 14 2 8 2.</_></rects>
      <tilted>0</tilted></_>
    <_>
      <rects>
        <_>
          17 6 6 12 -1.</_>
        <_>
          17 6 3 6 2.</_>
        <_>
          20 12 3 6 2.</_></rects>
      <tilted>0</tilted></_>
    <_>
      <rects>
        <_>
          17 7 1 3 -1.</_>
        <_>
          17 8 1 1 3.</_></rects>
      <tilted>0</tilted></_>
    <_>
      <rects>
        <_>
          17 14 3 1 -1.</_>
        <_>
          18 14 1 1 3.</_></rects>
      <tilted>0</tilted></_>
    <_>
      <rects>
        <_>
          18 0 6 15 -1.</_>
        <_>
          18 5 6 5 3.</_></rects>
      <tilted>0</tilted></_>
    <_>
      <rects>
        <_>
          18 1 6 13 -1.</_>
        <_>
          20 1 2 13 3.</_></rects>
      <tilted>0</tilted></_>
    <_>
      <rects>
        <_>
          18 7 1 3 -1.</_>
        <_>
          18 8 1 1 3.</_></rects>
      <tilted>0</tilted></_>
    <_>
      <rects>
        <_>
          19 0 1 6 -1.</_>
        <_>
          19 3 1 3 2.</_></rects>
      <tilted>0</tilted></_>
    <_>
      <rects>
        <_>
          19 0 2 4 -1.</_>
        <_>
          20 0 1 4 2.</_></rects>
      <tilted>0</tilted></_>
    <_>
      <rects>
        <_>
          19 3 1 3 -1.</_>
        <_>
          19 4 1 1 3.</_></rects>
      <tilted>0</tilted></_>
    <_>
      <rects>
        <_>
          19 22 2 2 -1.</_>
        <_>
          19 23 2 1 2.</_></rects>
      <tilted>0</tilted></_>
    <_>
      <rects>
        <_>
          21 21 2 2 -1.</_>
        <_>
          22 21 1 2 2.</_></rects>
      <tilted>0</tilted></_>
    <_>
      <rects>
        <_>
          22 6 2 2 -1.</_>
        <_>
          22 6 1 1 2.</_>
        <_>
          23 7 1 1 2.</_></rects>
      <tilted>0</tilted></_>
    <_>
      <rects>
        <_>
          23 0 1 2 -1.</_>
        <_>
          23 1 1 1 2.</_></rects>
      <tilted>0</tilted></_></features></cascade>
</opencv_storage>
