<?xml version="1.0"?>
<opencv_storage>
<stage5>
  <maxWeakCount>10</maxWeakCount>
  <stageThreshold>-7.6071828603744507e-01</stageThreshold>
  <weakClassifiers>
    <_>
      <internalNodes>
        0 -1 121277 6.5866415388882160e-04</internalNodes>
      <leafValues>
        -3.1398415565490723e-01 5.3846156597137451e-01</leafValues></_>
    <_>
      <internalNodes>
        0 -1 119162 1.3924676459282637e-03</internalNodes>
      <leafValues>
        -8.4279519319534302e-01 1.7067416012287140e-01</leafValues></_>
    <_>
      <internalNodes>
        0 -1 10741 4.7032233851496130e-05</internalNodes>
      <leafValues>
        3.0297377705574036e-01 -3.4946632385253906e-01</leafValues></_>
    <_>
      <internalNodes>
        0 -1 13323 2.2045811056159437e-04</internalNodes>
      <leafValues>
        2.2962214052677155e-01 -4.1332322359085083e-01</leafValues></_>
    <_>
      <internalNodes>
        0 -1 106789 2.6809208793565631e-04</internalNodes>
      <leafValues>
        1.3651521503925323e-01 -7.5496548414230347e-01</leafValues></_>
    <_>
      <internalNodes>
        0 -1 127895 5.5191586725413799e-03</internalNodes>
      <leafValues>
        -6.1528289318084717e-01 1.2395441532135010e-01</leafValues></_>
    <_>
      <internalNodes>
        0 -1 35444 8.8803330436348915e-04</internalNodes>
      <leafValues>
        1.0985447466373444e-01 -8.1475949287414551e-01</leafValues></_>
    <_>
      <internalNodes>
        0 -1 65608 -1.0392332915216684e-03</internalNodes>
      <leafValues>
        -6.9057732820510864e-01 1.0430597513914108e-01</leafValues></_>
    <_>
      <internalNodes>
        0 -1 13880 2.0712180063128471e-02</internalNodes>
      <leafValues>
        -3.2091477513313293e-01 4.1582173109054565e-01</leafValues></_>
    <_>
      <internalNodes>
        0 -1 43110 -8.8543933816254139e-04</internalNodes>
      <leafValues>
        -7.0508098602294922e-01 1.4610467851161957e-01</leafValues></_></weakClassifiers></stage5>
</opencv_storage>
