<?xml version="1.0"?>
<opencv_storage>
<stage6>
  <maxWeakCount>13</maxWeakCount>
  <stageThreshold>-9.6804291009902954e-01</stageThreshold>
  <weakClassifiers>
    <_>
      <internalNodes>
        0 -1 5995 2.2414544597268105e-02</internalNodes>
      <leafValues>
        -4.2758619785308838e-01 4.0000000596046448e-01</leafValues></_>
    <_>
      <internalNodes>
        0 -1 135472 -7.7743120491504669e-03</internalNodes>
      <leafValues>
        4.6859151124954224e-01 -2.9161563515663147e-01</leafValues></_>
    <_>
      <internalNodes>
        0 -1 106690 4.0526909288018942e-04</internalNodes>
      <leafValues>
        -2.7253511548042297e-01 5.1524221897125244e-01</leafValues></_>
    <_>
      <internalNodes>
        0 -1 13279 -2.5897980667650700e-03</internalNodes>
      <leafValues>
        6.8838179111480713e-01 -1.9334608316421509e-01</leafValues></_>
    <_>
      <internalNodes>
        0 -1 125157 7.5294449925422668e-04</internalNodes>
      <leafValues>
        2.2093842923641205e-01 -5.6841927766799927e-01</leafValues></_>
    <_>
      <internalNodes>
        0 -1 126065 1.4045584248378873e-04</internalNodes>
      <leafValues>
        2.2210006415843964e-01 -5.3332257270812988e-01</leafValues></_>
    <_>
      <internalNodes>
        0 -1 4 7.7936681918799877e-05</internalNodes>
      <leafValues>
        -3.4515321254730225e-01 3.0342006683349609e-01</leafValues></_>
    <_>
      <internalNodes>
        0 -1 150087 -7.2249607183039188e-04</internalNodes>
      <leafValues>
        -6.5571755170822144e-01 1.8196214735507965e-01</leafValues></_>
    <_>
      <internalNodes>
        0 -1 28975 8.3894103765487671e-02</internalNodes>
      <leafValues>
        1.1458187550306320e-01 -9.6609628200531006e-01</leafValues></_>
    <_>
      <internalNodes>
        0 -1 158672 1.1909800814464688e-03</internalNodes>
      <leafValues>
        1.4744117856025696e-01 -5.2359974384307861e-01</leafValues></_>
    <_>
      <internalNodes>
        0 -1 5955 -5.3526263218373060e-04</internalNodes>
      <leafValues>
        -7.7507597208023071e-01 1.0465997457504272e-01</leafValues></_>
    <_>
      <internalNodes>
        0 -1 20845 -4.0236706845462322e-03</internalNodes>
      <leafValues>
        -5.2105695009231567e-01 1.7486612498760223e-01</leafValues></_>
    <_>
      <internalNodes>
        0 -1 160796 -5.7208058424293995e-03</internalNodes>
      <leafValues>
        2.5255379080772400e-01 -4.1366967558860779e-01</leafValues></_></weakClassifiers></stage6>
</opencv_storage>
