<?xml version="1.0"?>
<opencv_storage>
<stage6>
  <maxWeakCount>7</maxWeakCount>
  <stageThreshold>-1.3031033277511597e+00</stageThreshold>
  <weakClassifiers>
    <_>
      <internalNodes>
        0 -1 123021 8.0442819744348526e-03</internalNodes>
      <leafValues>
        -6.9531250000000000e-01 5.1744186878204346e-01</leafValues></_>
    <_>
      <internalNodes>
        0 -1 13048 3.2619781792163849e-02</internalNodes>
      <leafValues>
        -5.6416887044906616e-01 5.6063026189804077e-01</leafValues></_>
    <_>
      <internalNodes>
        0 -1 28220 9.0700820088386536e-02</internalNodes>
      <leafValues>
        3.5620638728141785e-01 -6.6660809516906738e-01</leafValues></_>
    <_>
      <internalNodes>
        0 -1 127089 1.1503146379254758e-04</internalNodes>
      <leafValues>
        2.6812192797660828e-01 -7.4702125787734985e-01</leafValues></_>
    <_>
      <internalNodes>
        0 -1 130968 1.4466932043433189e-02</internalNodes>
      <leafValues>
        -3.1033673882484436e-01 6.8274235725402832e-01</leafValues></_>
    <_>
      <internalNodes>
        0 -1 160205 -3.9664987707510591e-04</internalNodes>
      <leafValues>
        3.5135799646377563e-01 -5.7319754362106323e-01</leafValues></_>
    <_>
      <internalNodes>
        0 -1 139101 -7.9334893962368369e-04</internalNodes>
      <leafValues>
        -9.0048485994338989e-01 2.1558396518230438e-01</leafValues></_></weakClassifiers></stage6>
</opencv_storage>
