<?xml version="1.0"?>
<opencv_storage>
<stage4>
  <maxWeakCount>8</maxWeakCount>
  <stageThreshold>-1.0089170932769775e+00</stageThreshold>
  <weakClassifiers>
    <_>
      <internalNodes>
        0 -1 114619 7.0161777548491955e-03</internalNodes>
      <leafValues>
        -6.2626260519027710e-01 3.0845770239830017e-01</leafValues></_>
    <_>
      <internalNodes>
        0 -1 135872 -3.1983214430510998e-03</internalNodes>
      <leafValues>
        3.3262243866920471e-01 -4.2600870132446289e-01</leafValues></_>
    <_>
      <internalNodes>
        0 -1 138475 -3.9855069189798087e-05</internalNodes>
      <leafValues>
        1.5552680194377899e-01 -8.1666278839111328e-01</leafValues></_>
    <_>
      <internalNodes>
        0 -1 121254 2.6593034272082150e-04</internalNodes>
      <leafValues>
        -2.8002166748046875e-01 4.8528251051902771e-01</leafValues></_>
    <_>
      <internalNodes>
        0 -1 110307 8.1731071695685387e-03</internalNodes>
      <leafValues>
        -5.8907192945480347e-01 2.8460386395454407e-01</leafValues></_>
    <_>
      <internalNodes>
        0 -1 69461 -2.0406646654009819e-03</internalNodes>
      <leafValues>
        2.7133142948150635e-01 -5.0191450119018555e-01</leafValues></_>
    <_>
      <internalNodes>
        0 -1 110755 1.2015867978334427e-03</internalNodes>
      <leafValues>
        1.4254970848560333e-01 -7.8944659233093262e-01</leafValues></_>
    <_>
      <internalNodes>
        0 -1 89 9.7003561677411199e-04</internalNodes>
      <leafValues>
        -3.9284741878509521e-01 2.8007918596267700e-01</leafValues></_></weakClassifiers></stage4>
</opencv_storage>
