<?xml version="1.0"?>
<opencv_storage>
<stage7>
  <maxWeakCount>8</maxWeakCount>
  <stageThreshold>-7.8231924772262573e-01</stageThreshold>
  <weakClassifiers>
    <_>
      <internalNodes>
        0 -1 151900 3.8713414687663317e-03</internalNodes>
      <leafValues>
        -5.1851850748062134e-01 4.2424243688583374e-01</leafValues></_>
    <_>
      <internalNodes>
        0 -1 156829 6.7925974726676941e-03</internalNodes>
      <leafValues>
        -2.4099718034267426e-01 5.0059789419174194e-01</leafValues></_>
    <_>
      <internalNodes>
        0 -1 13770 -9.5934465527534485e-02</internalNodes>
      <leafValues>
        -7.4245935678482056e-01 1.4193844795227051e-01</leafValues></_>
    <_>
      <internalNodes>
        0 -1 93708 1.5713714063167572e-02</internalNodes>
      <leafValues>
        -9.0837371349334717e-01 1.3555181026458740e-01</leafValues></_>
    <_>
      <internalNodes>
        0 -1 62581 -9.2083945870399475e-02</internalNodes>
      <leafValues>
        -5.1115232706069946e-01 2.0009955763816833e-01</leafValues></_>
    <_>
      <internalNodes>
        0 -1 145957 5.3705624304711819e-04</internalNodes>
      <leafValues>
        1.4246663451194763e-01 -6.9172179698944092e-01</leafValues></_>
    <_>
      <internalNodes>
        0 -1 161187 1.1828225251520053e-04</internalNodes>
      <leafValues>
        1.6788870096206665e-01 -6.5200263261795044e-01</leafValues></_>
    <_>
      <internalNodes>
        0 -1 127762 -4.8740606871433556e-05</internalNodes>
      <leafValues>
        -8.9390951395034790e-01 7.3649078607559204e-02</leafValues></_></weakClassifiers></stage7>
</opencv_storage>
