<?xml version="1.0"?>
<opencv_storage>
<stage7>
  <maxWeakCount>7</maxWeakCount>
  <stageThreshold>-1.0315486192703247e+00</stageThreshold>
  <weakClassifiers>
    <_>
      <internalNodes>
        0 -1 6113 9.9482938647270203e-02</internalNodes>
      <leafValues>
        -6.7515921592712402e-01 7.4125874042510986e-01</leafValues></_>
    <_>
      <internalNodes>
        0 -1 124357 1.0276794433593750e-02</internalNodes>
      <leafValues>
        -4.8548603057861328e-01 6.5039753913879395e-01</leafValues></_>
    <_>
      <internalNodes>
        0 -1 148583 3.3733274787664413e-02</internalNodes>
      <leafValues>
        -6.6870909929275513e-01 3.8047096133232117e-01</leafValues></_>
    <_>
      <internalNodes>
        0 -1 149262 1.3038545846939087e-02</internalNodes>
      <leafValues>
        -5.4159688949584961e-01 4.3559750914573669e-01</leafValues></_>
    <_>
      <internalNodes>
        0 -1 13199 1.4754287898540497e-02</internalNodes>
      <leafValues>
        -2.9469999670982361e-01 7.4248129129409790e-01</leafValues></_>
    <_>
      <internalNodes>
        0 -1 124750 2.9154417570680380e-03</internalNodes>
      <leafValues>
        -9.6891313791275024e-01 2.1314333379268646e-01</leafValues></_>
    <_>
      <internalNodes>
        0 -1 25926 1.4497691299766302e-03</internalNodes>
      <leafValues>
        -4.2345604300498962e-01 4.4376489520072937e-01</leafValues></_></weakClassifiers></stage7>
</opencv_storage>
