<?xml version="1.0"?>
<opencv_storage>
<stage5>
  <maxWeakCount>10</maxWeakCount>
  <stageThreshold>-7.2276324033737183e-01</stageThreshold>
  <weakClassifiers>
    <_>
      <internalNodes>
        0 -1 106917 1.7538510262966156e-02</internalNodes>
      <leafValues>
        -5.1351350545883179e-01 3.0158731341362000e-01</leafValues></_>
    <_>
      <internalNodes>
        0 -1 98540 5.2143709035590291e-04</internalNodes>
      <leafValues>
        -2.7428072690963745e-01 4.7720244526863098e-01</leafValues></_>
    <_>
      <internalNodes>
        0 -1 145543 -5.1212359219789505e-02</internalNodes>
      <leafValues>
        3.3557581901550293e-01 -3.7467378377914429e-01</leafValues></_>
    <_>
      <internalNodes>
        0 -1 113566 4.1929364670068026e-05</internalNodes>
      <leafValues>
        -5.2148753404617310e-01 1.8827174603939056e-01</leafValues></_>
    <_>
      <internalNodes>
        0 -1 4 3.8377795135602355e-05</internalNodes>
      <leafValues>
        -3.3536028861999512e-01 3.2219538092613220e-01</leafValues></_>
    <_>
      <internalNodes>
        0 -1 37279 -7.8317394945770502e-04</internalNodes>
      <leafValues>
        -6.2108361721038818e-01 1.5466424822807312e-01</leafValues></_>
    <_>
      <internalNodes>
        0 -1 80693 -1.0991940507665277e-04</internalNodes>
      <leafValues>
        -7.5345158576965332e-01 1.4016890525817871e-01</leafValues></_>
    <_>
      <internalNodes>
        0 -1 49362 -8.8956457329913974e-04</internalNodes>
      <leafValues>
        5.3963917493820190e-01 -2.0274387300014496e-01</leafValues></_>
    <_>
      <internalNodes>
        0 -1 89743 1.1504603317007422e-03</internalNodes>
      <leafValues>
        -2.5243440270423889e-01 5.2863746881484985e-01</leafValues></_>
    <_>
      <internalNodes>
        0 -1 156469 6.6278327722102404e-04</internalNodes>
      <leafValues>
        1.5508103370666504e-01 -7.8435105085372925e-01</leafValues></_></weakClassifiers></stage5>
</opencv_storage>
